{"learner":{"attributes":{"scikit_learn":"{\"_estimator_type\": \"classifier\"}"},"feature_names":["characterNum1","bestWeapon1","characterNum2","bestWeapon2","characterNum3","bestWeapon3"],"feature_types":["int","int","int","int","int","int"],"gradient_booster":{"model":{"gbtree_model_param":{"num_parallel_tree":"1","num_trees":"300"},"iteration_indptr":[0,1,2,3,4,5,6,7,8,9,10,11,12,13,14,15,16,17,18,19,20,21,22,23,24,25,26,27,28,29,30,31,32,33,34,35,36,37,38,39,40,41,42,43,44,45,46,47,48,49,50,51,52,53,54,55,56,57,58,59,60,61,62,63,64,65,66,67,68,69,70,71,72,73,74,75,76,77,78,79,80,81,82,83,84,85,86,87,88,89,90,91,92,93,94,95,96,97,98,99,100,101,102,103,104,105,106,107,108,109,110,111,112,113,114,115,116,117,118,119,120,121,122,123,124,125,126,127,128,129,130,131,132,133,134,135,136,137,138,139,140,141,142,143,144,145,146,147,148,149,150,151,152,153,154,155,156,157,158,159,160,161,162,163,164,165,166,167,168,169,170,171,172,173,174,175,176,177,178,179,180,181,182,183,184,185,186,187,188,189,190,191,192,193,194,195,196,197,198,199,200,201,202,203,204,205,206,207,208,209,210,211,212,213,214,215,216,217,218,219,220,221,222,223,224,225,226,227,228,229,230,231,232,233,234,235,236,237,238,239,240,241,242,243,244,245,246,247,248,249,250,251,252,253,254,255,256,257,258,259,260,261,262,263,264,265,266,267,268,269,270,271,272,273,274,275,276,277,278,279,280,281,282,283,284,285,286,287,288,289,290,291,292,293,294,295,296,297,298,299,300],"tree_info":[0,0,0,0,0,0,0,0,0,0,0,0,0,0,0,0,0,0,0,0,0,0,0,0,0,0,0,0,0,0,0,0,0,0,0,0,0,0,0,0,0,0,0,0,0,0,0,0,0,0,0,0,0,0,0,0,0,0,0,0,0,0,0,0,0,0,0,0,0,0,0,0,0,0,0,0,0,0,0,0,0,0,0,0,0,0,0,0,0,0,0,0,0,0,0,0,0,0,0,0,0,0,0,0,0,0,0,0,0,0,0,0,0,0,0,0,0,0,0,0,0,0,0,0,0,0,0,0,0,0,0,0,0,0,0,0,0,0,0,0,0,0,0,0,0,0,0,0,0,0,0,0,0,0,0,0,0,0,0,0,0,0,0,0,0,0,0,0,0,0,0,0,0,0,0,0,0,0,0,0,0,0,0,0,0,0,0,0,0,0,0,0,0,0,0,0,0,0,0,0,0,0,0,0,0,0,0,0,0,0,0,0,0,0,0,0,0,0,0,0,0,0,0,0,0,0,0,0,0,0,0,0,0,0,0,0,0,0,0,0,0,0,0,0,0,0,0,0,0,0,0,0,0,0,0,0,0,0,0,0,0,0,0,0,0,0,0,0,0,0,0,0,0,0,0,0,0,0,0,0,0,0,0,0,0,0,0,0,0,0,0,0,0,0,0,0,0,0,0,0],"trees":[{"base_weights":[7.3895395E-2,-7.777778E-1,2.0336242E-1,-1.1742062E-1,-1.4308779E0,1.00538075E-1,7.126437E-1,-5.7123005E-1,7.82138E-1,-9.310345E-2,-2.151899E-1,-2.1879861E-2,5.857664E-1,4.874927E-1,1.4071146E0,2.8080228E-1,-1.2104638E0,-2.6392972E-3,5.9839357E-2,5.798319E-2,-7.333334E-2,3.8661486E-1,-2.7335483E-1,1.1181657E0,2.3931007E-1,6.986987E-1,-7.7264327E-1,3.0555556E-2,8.529412E-2,3.0555556E-2,-9.289619E-3,-9.289619E-3,-8.260869E-2,-9.641186E-1,5.2104664E-1,-1.0624264E0,-1.2582284E-1,2.5134627E-2,1.5176848E0,-9.2207795E-1,5.4433167E-1,1.0894483E0,4.878046E-2,-6.923077E-2,5.0632902E-3,-7.647059E-2,5.0632902E-3,1.0629197E-1,6.5684575E-1,4.764398E-2,-1.5310735E0,4.113712E-1,-3.0824375E-1,5.0632902E-3,-2.6392972E-3,8.399146E-2,3.8574938E-2,-7.5E-2,5.0632902E-3,7.5389403E-1,-2.4716554E-2,6.0150363E-3,6.864112E-2,-5.5754477E-1,9.0510947E-1,-5.823687E-1,6.742671E-2,7.928061E-1,-2.8310505E-1,-9.166667E-2,5.0632902E-3,7.2461027E-1,-7.333334E-2,1.4159289E-1,-5.129803E-1,-1.4168042E-1,1.0838618E0,-7.333334E-2,1.1242602E-2,6.9879524E-2,5.0632902E-3,3.311037E-2,-8.4E-2,6.575342E-2,2.4045942E-2,-7.333334E-2,4.764398E-2,1.7387882E-2,5.7716705E-2,-3.221154E-2,2.801047E-2,-5.3801514E-2,-9.649124E-3,4.764398E-2,-6.923077E-2,6.259351E-2,5.0632902E-3],"categories":[],"categories_nodes":[],"categories_segments":[],"categories_sizes":[],"default_left":[0,0,0,0,0,0,0,0,0,0,0,0,0,0,0,0,0,0,0,0,0,0,0,0,0,0,0,0,0,0,0,0,0,0,0,0,0,0,0,0,0,0,0,0,0,0,0,0,0,0,0,0,0,0,0,0,0,0,0,0,0,0,0,0,0,0,0,0,0,0,0,0,0,0,0,0,0,0,0,0,0,0,0,0,0,0,0,0,0,0,0,0,0,0,0,0,0],"id":0,"left_children":[1,3,5,7,9,11,13,15,17,-1,19,21,23,25,27,29,31,-1,-1,-1,-1,33,35,37,39,41,43,-1,-1,-1,-1,-1,-1,45,47,49,51,53,55,57,59,61,63,-1,-1,-1,-1,65,67,-1,69,71,73,-1,-1,-1,-1,-1,-1,75,-1,-1,-1,77,79,81,-1,83,85,-1,-1,87,-1,89,91,93,95,-1,-1,-1,-1,-1,-1,-1,-1,-1,-1,-1,-1,-1,-1,-1,-1,-1,-1,-1,-1],"loss_changes":[3.307516E1,1.6910646E1,1.3539977E1,8.929762E0,9.988827E0,1.29283E1,6.115736E0,8.1773815E0,2.621595E0,0E0,1.2575017E1,1.8040648E1,7.818836E0,9.690022E0,1.3642578E0,1.1892997E0,3.4994698E0,0E0,0E0,0E0,0E0,1.2657416E1,1.2514629E1,7.3898983E0,1.0360649E1,7.5578966E0,3.033525E0,0E0,0E0,0E0,0E0,0E0,0E0,4.015328E0,3.3957558E0,1.7495981E1,9.208038E0,3.838768E-2,2.0912743E-1,3.795002E0,5.3071303E0,4.9622116E0,6.8909698E0,0E0,0E0,0E0,0E0,1.4789606E1,6.1235104E0,0E0,7.1720657E0,1.5134296E1,6.4964705E0,0E0,0E0,0E0,0E0,0E0,0E0,5.8451004E0,0E0,0E0,0E0,5.8921027E0,2.0278811E0,1.645365E1,0E0,5.979145E0,1.1008574E1,0E0,0E0,3.0268936E0,0E0,7.795372E0,8.467758E0,9.577406E0,2.2157764E0,0E0,0E0,0E0,0E0,0E0,0E0,0E0,0E0,0E0,0E0,0E0,0E0,0E0,0E0,0E0,0E0,0E0,0E0,0E0,0E0],"parents":[2147483647,0,0,1,1,2,2,3,3,4,4,5,5,6,6,7,7,8,8,10,10,11,11,12,12,13,13,14,14,15,15,16,16,21,21,22,22,23,23,24,24,25,25,26,26,33,33,34,34,35,35,36,36,37,37,38,38,39,39,40,40,41,41,42,42,47,47,48,48,50,50,51,51,52,52,59,59,63,63,64,64,65,65,67,67,68,68,71,71,73,73,74,74,75,75,76,76],"right_children":[2,4,6,8,10,12,14,16,18,-1,20,22,24,26,28,30,32,-1,-1,-1,-1,34,36,38,40,42,44,-1,-1,-1,-1,-1,-1,46,48,50,52,54,56,58,60,62,64,-1,-1,-1,-1,66,68,-1,70,72,74,-1,-1,-1,-1,-1,-1,76,-1,-1,-1,78,80,82,-1,84,86,-1,-1,88,-1,90,92,94,96,-1,-1,-1,-1,-1,-1,-1,-1,-1,-1,-1,-1,-1,-1,-1,-1,-1,-1,-1,-1],"split_conditions":[4E0,9E0,2.2E1,3.6E1,4.2E1,2.1E1,3.4E1,7E0,1E1,-9.310345E-2,4.7E1,9E0,2.6E1,2.6E1,1.3E1,1E1,2E0,-2.6392972E-3,5.9839357E-2,5.798319E-2,-7.333334E-2,3E0,1E1,1.5E1,3.8E1,1.3E1,3E1,3.0555556E-2,8.529412E-2,3.0555556E-2,-9.289619E-3,-9.289619E-3,-8.260869E-2,8E0,4E0,4E0,1.3E1,1.1E1,2.2E1,2.2E1,1.9E1,5E0,5.3E1,-6.923077E-2,5.0632902E-3,-7.647059E-2,5.0632902E-3,2.2E1,2.2E1,4.764398E-2,2.4E1,1.8E1,7E0,5.0632902E-3,-2.6392972E-3,8.399146E-2,3.8574938E-2,-7.5E-2,5.0632902E-3,9E0,-2.4716554E-2,6.0150363E-3,6.864112E-2,9E0,5.8E1,7E0,6.742671E-2,7E0,2.8E1,-9.166667E-2,5.0632902E-3,1.4E1,-7.333334E-2,1.2E1,1.5E1,4.8E1,2.3E1,-7.333334E-2,1.1242602E-2,6.9879524E-2,5.0632902E-3,3.311037E-2,-8.4E-2,6.575342E-2,2.4045942E-2,-7.333334E-2,4.764398E-2,1.7387882E-2,5.7716705E-2,-3.221154E-2,2.801047E-2,-5.3801514E-2,-9.649124E-3,4.764398E-2,-6.923077E-2,6.259351E-2,5.0632902E-3],"split_indices":[3,0,3,2,0,1,0,5,5,0,0,3,2,0,5,1,1,0,0,0,0,5,3,2,2,1,0,0,0,0,0,0,0,3,1,0,3,2,2,1,3,1,2,0,0,0,0,5,5,0,5,5,5,0,0,0,0,0,0,3,0,0,0,0,2,5,0,1,0,0,0,5,0,0,5,2,1,0,0,0,0,0,0,0,0,0,0,0,0,0,0,0,0,0,0,0,0],"split_type":[0,0,0,0,0,0,0,0,0,0,0,0,0,0,0,0,0,0,0,0,0,0,0,0,0,0,0,0,0,0,0,0,0,0,0,0,0,0,0,0,0,0,0,0,0,0,0,0,0,0,0,0,0,0,0,0,0,0,0,0,0,0,0,0,0,0,0,0,0,0,0,0,0,0,0,0,0,0,0,0,0,0,0,0,0,0,0,0,0,0,0,0,0,0,0,0,0],"sum_hessian":[2.9753E2,3.86E1,2.5893E2,1.9779999E1,1.882E1,2.1643E2,4.25E1,1.3389999E1,6.39E0,1.35E1,5.3199997E0,1.7359E2,4.284E1,3.338E1,9.12E0,5.98E0,7.41E0,2.4099998E0,3.98E0,2.57E0,2.75E0,6.594E1,1.0765E2,1.601E1,2.683E1,2.897E1,4.41E0,3.32E0,5.7999997E0,3.32E0,2.6599998E0,2.6599998E0,4.75E0,5.41E0,6.053E1,1.598E1,9.167E1,4.5699997E0,1.144E1,5.16E0,2.167E1,1.767E1,1.13E1,2.25E0,2.1599998E0,3.25E0,2.1599998E0,1.537E1,4.516E1,2.82E0,1.316E1,2.292E1,6.875E1,2.1599998E0,2.4099998E0,8.37E0,3.07E0,3E0,2.1599998E0,1.826E1,3.4099998E0,4.3199997E0,1.3349999E1,6.8199997E0,4.48E0,1.023E1,5.14E0,3.959E1,5.5699997E0,1.1E1,2.1599998E0,2.017E1,2.75E0,2.16E1,4.7149998E1,5.0699997E0,1.319E1,2.75E0,4.0699997E0,2.32E0,2.1599998E0,4.98E0,5.25E0,1.3599999E1,2.599E1,2.75E0,2.82E0,1.171E1,8.46E0,7.3199997E0,1.428E1,1.623E1,3.092E1,2.82E0,2.25E0,1.103E1,2.1599998E0],"tree_param":{"num_deleted":"0","num_feature":"6","num_nodes":"97","size_leaf_vector":"1"}},{"base_weights":[3.0344842E-2,-1.0995923E0,1.300288E-1,-1.3801059E0,1.0687309E-2,3.3273164E-2,4.6426383E-1,-4.296055E-1,-8.96704E-2,-5.402669E-2,4.9063903E-1,4.110031E-2,6.1339515E-1,3.0264897E-2,-7.20636E-2,1.608579E-1,-3.120396E-1,8.7513196E-1,3.86348E-2,7.167861E-1,-7.9547E-2,2.8969276E-1,1.2623172E0,2.6542628E-1,-8.2964694E-1,-1.2147982E0,-1.12784326E-1,-8.427782E-3,1.063966E0,4.416741E-1,-7.3092215E-2,-1.8646764E-2,1.1202654E0,8.9838403E-1,-2.553572E-1,1.5354253E0,-4.2068986E-3,6.257642E-1,2.1345472E-2,-7.996766E-2,1.0279991E-2,-1.4645088E-1,-8.848829E-2,1.4590608E-1,-7.3310274E-1,6.6511863E-1,6.426969E-2,-2.1040907E-2,7.356298E-1,7.6461636E-2,-2.6754541E-3,1.1504451E0,-9.640205E-3,1.525616E-1,-7.673924E-2,8.636159E-2,3.6416333E-2,2.8246483E-1,1.0430232E0,-1.092623E0,2.004513E-1,-3.457951E-3,4.6372074E-3,-9.621068E-3,-2.7085696E-3,-4.1818988E-1,8.5485244E-1,6.5128636E-1,-1.2339331E0,5.8376044E-2,-9.993152E-3,5.8445584E-2,-1.5810145E-2,6.6632473E-1,8.010264E-2,-4.3316597E-1,6.9357944E-1,-1.3647941E-2,3.293079E-2,8.462833E-2,2.4987018E-2,-7.8749E-2,-1.4797896E-3,3.084275E-2,-1.04610855E-2,-8.176803E-2,-4.746207E-3,4.868493E-2,-3.6392473E-3,5.674816E-2,-2.298366E-3,-7.342132E-2,5.718279E-3,5.8097858E-2,-9.50022E-3,-3.4436863E-2,6.062266E-3,6.926085E-2,6.574319E-3],"categories":[],"categories_nodes":[],"categories_segments":[],"categories_sizes":[],"default_left":[0,0,0,0,0,0,0,0,0,0,0,0,0,0,0,0,0,0,0,0,0,0,0,0,0,0,0,0,0,0,0,0,0,0,0,0,0,0,0,0,0,0,0,0,0,0,0,0,0,0,0,0,0,0,0,0,0,0,0,0,0,0,0,0,0,0,0,0,0,0,0,0,0,0,0,0,0,0,0,0,0,0,0,0,0,0,0,0,0,0,0,0,0,0,0,0,0,0,0],"id":1,"left_children":[1,3,5,7,-1,9,11,13,-1,15,17,19,21,-1,-1,23,25,27,29,31,-1,33,35,37,39,41,43,-1,45,47,-1,-1,49,51,53,55,-1,57,59,-1,61,63,-1,65,67,69,-1,-1,71,-1,-1,73,-1,75,-1,-1,-1,77,79,81,83,-1,-1,-1,-1,85,87,89,91,-1,-1,-1,-1,93,-1,95,97,-1,-1,-1,-1,-1,-1,-1,-1,-1,-1,-1,-1,-1,-1,-1,-1,-1,-1,-1,-1,-1,-1],"loss_changes":[3.314687E1,9.085196E0,8.721039E0,7.005783E0,0E0,8.434597E0,3.7972326E0,8.529808E0,0E0,9.904073E0,5.8493233E0,1.972789E1,9.027084E0,0E0,0E0,1.03322115E1,1.4451319E1,3.7752457E0,1.0688114E1,5.9620833E0,0E0,1.055773E1,5.4921207E0,7.8199873E0,6.200178E0,8.374283E0,1.0944997E1,0E0,5.2163696E-1,3.823007E0,0E0,0E0,4.619256E0,4.327791E0,9.212385E0,6.2703514E-1,0E0,4.85235E0,1.1019542E1,0E0,4.2885866E-2,1.5319198E-2,0E0,1.9751917E1,1.470007E1,3.5519621E0,0E0,0E0,5.245681E0,0E0,0E0,1.6152554E0,0E0,4.722195E0,0E0,0E0,0E0,4.5847282E0,4.7464104E0,3.8775654E0,8.228632E0,0E0,0E0,0E0,0E0,1.0735533E1,2.4761887E0,2.0685892E0,4.9305267E0,0E0,0E0,0E0,0E0,3.4609177E0,0E0,1.1200572E0,2.7872894E0,0E0,0E0,0E0,0E0,0E0,0E0,0E0,0E0,0E0,0E0,0E0,0E0,0E0,0E0,0E0,0E0,0E0,0E0,0E0,0E0,0E0,0E0],"parents":[2147483647,0,0,1,1,2,2,3,3,5,5,6,6,7,7,9,9,10,10,11,11,12,12,15,15,16,16,17,17,18,18,19,19,21,21,22,22,23,23,24,24,25,25,26,26,28,28,29,29,32,32,33,33,34,34,35,35,37,37,38,38,40,40,41,41,43,43,44,44,45,45,48,48,51,51,53,53,57,57,58,58,59,59,60,60,65,65,66,66,67,67,68,68,73,73,75,75,76,76],"right_children":[2,4,6,8,-1,10,12,14,-1,16,18,20,22,-1,-1,24,26,28,30,32,-1,34,36,38,40,42,44,-1,46,48,-1,-1,50,52,54,56,-1,58,60,-1,62,64,-1,66,68,70,-1,-1,72,-1,-1,74,-1,76,-1,-1,-1,78,80,82,84,-1,-1,-1,-1,86,88,90,92,-1,-1,-1,-1,94,-1,96,98,-1,-1,-1,-1,-1,-1,-1,-1,-1,-1,-1,-1,-1,-1,-1,-1,-1,-1,-1,-1,-1,-1],"split_conditions":[3E0,8.4E1,1.9E1,6E0,1.0687309E-2,2.2E1,9E0,7E0,-8.96704E-2,8E0,6.4E1,1.5E1,2.4E1,3.0264897E-2,-7.20636E-2,3.6E1,6E0,4.7E1,2.5E1,7E0,-7.9547E-2,6E0,2E1,8E0,4.9E1,3E0,1.9E1,-8.427782E-3,1.4E1,7E0,-7.3092215E-2,-1.8646764E-2,1.5E1,1.9E1,7.9E1,2.2E1,-4.2068986E-3,1.1E1,1.1E1,-7.996766E-2,1.5E1,6E1,-8.848829E-2,1.4E1,4E0,8E0,6.426969E-2,-2.1040907E-2,1E1,7.6461636E-2,-2.6754541E-3,2.5E1,-9.640205E-3,1.6E1,-7.673924E-2,8.636159E-2,3.6416333E-2,6.1E1,4.9E1,7E1,9E0,-3.457951E-3,4.6372074E-3,-9.621068E-3,-2.7085696E-3,1E1,1.6E1,1E1,5.5E1,5.8376044E-2,-9.993152E-3,5.8445584E-2,-1.5810145E-2,4E0,8.010264E-2,1.5E1,3.2E1,-1.3647941E-2,3.293079E-2,8.462833E-2,2.4987018E-2,-7.8749E-2,-1.4797896E-3,3.084275E-2,-1.04610855E-2,-8.176803E-2,-4.746207E-3,4.868493E-2,-3.6392473E-3,5.674816E-2,-2.298366E-3,-7.342132E-2,5.718279E-3,5.8097858E-2,-9.50022E-3,-3.4436863E-2,6.062266E-3,6.926085E-2,6.574319E-3],"split_indices":[3,4,1,5,0,3,3,0,0,1,4,5,5,0,0,0,5,4,3,5,0,5,3,5,0,0,5,0,5,1,0,0,0,3,4,1,0,3,5,0,5,4,0,5,0,0,0,0,1,0,0,0,0,3,0,0,0,4,4,4,3,0,0,0,0,1,1,3,0,0,0,0,0,0,0,0,4,0,0,0,0,0,0,0,0,0,0,0,0,0,0,0,0,0,0,0,0,0,0],"split_type":[0,0,0,0,0,0,0,0,0,0,0,0,0,0,0,0,0,0,0,0,0,0,0,0,0,0,0,0,0,0,0,0,0,0,0,0,0,0,0,0,0,0,0,0,0,0,0,0,0,0,0,0,0,0,0,0,0,0,0,0,0,0,0,0,0,0,0,0,0,0,0,0,0,0,0,0,0,0,0,0,0,0,0,0,0,0,0,0,0,0,0,0,0,0,0,0,0,0,0],"sum_hessian":[2.9201215E2,2.2859901E1,2.6915225E2,1.8794733E1,4.065169E0,2.0958139E2,5.957087E1,6.3138256E0,1.24809065E1,1.7672989E2,3.2851498E1,1.5855667E1,4.3715202E1,3.3196297E0,2.994196E0,9.662929E1,8.01006E1,1.7245592E1,1.5605906E1,1.1609845E1,4.245822E0,3.0131233E1,1.3583971E1,8.80643E1,8.564988E0,1.3561468E1,6.653913E1,2.6586416E0,1.458695E1,1.2857842E1,2.748063E0,3.1575642E0,8.452281E0,1.3928334E1,1.6202898E1,1.1176617E1,2.4073548E0,3.4931286E1,5.3133015E1,3.9975185E0,4.56747E0,5.06839E0,8.493077E0,4.7496525E1,1.904261E1,6.636576E0,7.950374E0,3.1586149E0,9.699228E0,6.0436983E0,2.4085824E0,1.1270563E1,2.6577704E0,1.2953653E1,3.2492447E0,8.109378E0,3.0672379E0,2.0084084E1,1.4847202E1,6.6530714E0,4.6479942E1,2.408586E0,2.158884E0,2.65871E0,2.4096801E0,2.66788E1,2.0817722E1,4.979082E0,1.4063529E1,3.9769206E0,2.6596553E0,6.790645E0,2.9085827E0,6.6341977E0,4.636366E0,6.315543E0,6.63811E0,8.220318E0,1.1863765E1,5.798789E0,9.048412E0,4.245186E0,2.4078856E0,2.2799816E1,2.3680126E1,4.746868E0,2.1931932E1,1.8409498E1,2.4082239E0,2.569138E0,2.4099438E0,1.19040985E1,2.159431E0,3.976022E0,2.6581755E0,4.1569815E0,2.1585617E0,2.3195667E0,4.3185434E0],"tree_param":{"num_deleted":"0","num_feature":"6","num_nodes":"99","size_leaf_vector":"1"}},{"base_weights":[4.877789E-2,-9.71516E-1,1.4881259E-1,-2.5245252E-1,-1.4677887E0,7.40175E-2,5.6081694E-1,-9.627487E-1,5.746384E-1,-8.549727E-2,-1.53143825E-2,2.0809403E-1,-2.6810378E-1,7.919061E-1,-3.0646986E-1,-7.3584095E-2,-4.8110198E-4,6.989364E-2,-1.36473775E-2,-4.575738E-1,2.8072825E-1,4.5673797E-1,-6.0190654E-1,-1.2577799E-1,1.0643383E0,-9.7307616E-1,4.6756566E-2,5.858555E-1,-8.404029E-2,3.310135E-1,-6.225673E-1,-2.8896713E-1,7.39987E-1,-8.117653E-2,-4.3494213E-1,7.724612E-1,-7.321753E-2,1.2651839E0,3.099883E-1,-8.335884E-3,-7.3395275E-2,5.291756E-2,3.672894E-2,2.0156442E-1,7.767855E-1,-6.8125166E-2,-1.2333415E-1,5.1707826E-3,-2.5240554E-2,1.1150643E0,1.4608723E-1,-7.07506E-2,-3.2558835E-1,5.700429E-2,5.6198006E-3,7.6228306E-2,6.467419E-1,6.6849925E-2,-2.6687E-2,-2.9403847E-3,6.4152987E-3,-3.1359968E-1,3.1349832E-1,2.7783483E-1,1.1543287E0,4.6231166E-2,-6.5886244E-2,7.4221514E-2,6.5207756E-1,2.7780851E-2,-1.7201258E-2,-4.383021E-1,3.558966E-2,9.267447E-3,5.601234E-2,-5.2234787E-2,3.21813E-2,2.1484664E-2,-1.5268062E-2,5.5402864E-2,-5.886778E-3,7.2027616E-2,4.0626157E-2,-8.688665E-3,6.834312E-2,-1.5239613E-2,-7.256741E-2],"categories":[],"categories_nodes":[],"categories_segments":[],"categories_sizes":[],"default_left":[0,0,0,0,0,0,0,0,0,0,0,0,0,0,0,0,0,0,0,0,0,0,0,0,0,0,0,0,0,0,0,0,0,0,0,0,0,0,0,0,0,0,0,0,0,0,0,0,0,0,0,0,0,0,0,0,0,0,0,0,0,0,0,0,0,0,0,0,0,0,0,0,0,0,0,0,0,0,0,0,0,0,0,0,0,0,0],"id":2,"left_children":[1,3,5,7,9,11,13,15,17,-1,-1,19,21,23,25,-1,-1,-1,-1,27,29,31,33,35,37,39,-1,41,-1,43,45,47,49,-1,51,53,-1,55,57,-1,-1,-1,59,61,63,-1,65,-1,-1,67,69,-1,71,-1,-1,-1,73,-1,-1,-1,-1,75,77,79,81,-1,-1,-1,83,-1,-1,85,-1,-1,-1,-1,-1,-1,-1,-1,-1,-1,-1,-1,-1,-1,-1],"loss_changes":[3.0494627E1,9.151793E0,8.3304405E0,7.6641097E0,3.8584518E0,1.0655816E1,8.578211E0,3.3258748E0,4.7205615E0,0E0,0E0,8.182903E0,1.61231E1,8.413816E0,8.748873E0,0E0,0E0,0E0,0E0,2.2387825E1,7.056534E0,4.6962867E0,7.0173283E0,1.1321906E1,3.4929676E0,2.4097342E0,0E0,2.5015233E0,0E0,8.125007E0,2.8980362E0,6.078831E-1,3.3256474E0,0E0,3.8567567E0,1.2614846E0,0E0,2.210516E0,6.5335317E0,0E0,0E0,0E0,5.6227114E-2,6.589559E0,5.6972885E0,0E0,8.798186E0,0E0,0E0,6.477318E-1,1.6388651E0,0E0,4.7013946E0,0E0,0E0,0E0,1.4581659E0,0E0,0E0,0E0,0E0,1.5083884E1,6.8169975E0,5.082195E0,5.7769203E-1,0E0,0E0,0E0,3.7652006E0,0E0,0E0,4.2210603E0,0E0,0E0,0E0,0E0,0E0,0E0,0E0,0E0,0E0,0E0,0E0,0E0,0E0,0E0,0E0],"parents":[2147483647,0,0,1,1,2,2,3,3,4,4,5,5,6,6,7,7,8,8,11,11,12,12,13,13,14,14,19,19,20,20,21,21,22,22,23,23,24,24,25,25,27,27,29,29,30,30,31,31,32,32,34,34,35,35,37,37,38,38,42,42,43,43,44,44,46,46,49,49,50,50,52,52,56,56,61,61,62,62,63,63,64,64,68,68,71,71],"right_children":[2,4,6,8,10,12,14,16,18,-1,-1,20,22,24,26,-1,-1,-1,-1,28,30,32,34,36,38,40,-1,42,-1,44,46,48,50,-1,52,54,-1,56,58,-1,-1,-1,60,62,64,-1,66,-1,-1,68,70,-1,72,-1,-1,-1,74,-1,-1,-1,-1,76,78,80,82,-1,-1,-1,84,-1,-1,86,-1,-1,-1,-1,-1,-1,-1,-1,-1,-1,-1,-1,-1,-1,-1],"split_conditions":[3E0,7E0,2.2E1,2E0,8.4E1,1.5E1,1.6E1,1.1E1,8E0,-8.549727E-2,-1.53143825E-2,3.6E1,5E1,7E0,5.3E1,-7.3584095E-2,-4.8110198E-4,6.989364E-2,-1.36473775E-2,7E0,7.3E1,3.1E1,2.4E1,4E0,7.9E1,4.3E1,4.6756566E-2,7E0,-8.404029E-2,1.9E1,8.3E1,1.9E1,1.1E1,-8.117653E-2,5.7E1,6E1,-7.321753E-2,1.1E1,2.3E1,-8.335884E-3,-7.3395275E-2,5.291756E-2,2.5E1,2.3E1,9E0,-6.8125166E-2,8.5E1,5.1707826E-3,-2.5240554E-2,4.1E1,4.2E1,-7.07506E-2,2.2E1,5.700429E-2,5.6198006E-3,7.6228306E-2,5.2E1,6.6849925E-2,-2.6687E-2,-2.9403847E-3,6.4152987E-3,1.2E1,1.3E1,1.6E1,1.1E1,4.6231166E-2,-6.5886244E-2,7.4221514E-2,4.7E1,2.7780851E-2,-1.7201258E-2,5.9E1,3.558966E-2,9.267447E-3,5.601234E-2,-5.2234787E-2,3.21813E-2,2.1484664E-2,-1.5268062E-2,5.5402864E-2,-5.886778E-3,7.2027616E-2,4.0626157E-2,-8.688665E-3,6.834312E-2,-1.5239613E-2,-7.256741E-2],"split_indices":[3,0,3,3,4,3,1,2,2,0,0,4,4,1,2,0,0,0,0,3,2,4,2,1,4,2,0,1,0,1,4,4,1,0,4,4,0,1,3,0,0,0,4,2,3,0,4,0,0,4,4,0,1,0,0,0,2,0,0,0,0,0,3,2,3,0,0,0,4,0,0,0,0,0,0,0,0,0,0,0,0,0,0,0,0,0,0],"split_type":[0,0,0,0,0,0,0,0,0,0,0,0,0,0,0,0,0,0,0,0,0,0,0,0,0,0,0,0,0,0,0,0,0,0,0,0,0,0,0,0,0,0,0,0,0,0,0,0,0,0,0,0,0,0,0,0,0,0,0,0,0,0,0,0,0,0,0,0,0,0,0,0,0,0,0,0,0,0,0,0,0,0,0,0,0,0,0],"sum_hessian":[2.9636063E2,2.5684307E1,2.7067633E2,1.1104043E1,1.4580265E1,2.3008621E2,4.05901E1,5.8855677E0,5.2184753E0,1.1674178E1,2.9060872E0,1.6558543E2,6.4500786E1,3.2118908E1,8.471192E0,3.482167E0,2.4034007E0,2.317915E0,2.9005604E0,1.5768923E1,1.4981651E2,2.022171E1,4.427907E1,7.4756365E0,2.4643272E1,5.652618E0,2.8185747E0,8.791092E0,6.977831E0,1.4251636E2,7.300147E0,5.5610466E0,1.4660664E1,4.9945483E0,3.9284527E1,4.726725E0,2.7489119E0,1.892682E1,5.7164507E0,2.6580544E0,2.9945633E0,4.2268047E0,4.564287E0,1.1156952E2,3.0946842E1,2.2444112E0,5.0557356E0,2.1583176E0,3.402729E0,8.447878E0,6.2127857E0,2.7448025E0,3.6539722E1,2.5687964E0,2.1579285E0,1.2302029E1,6.6247926E0,2.3145196E0,3.4019308E0,2.4089806E0,2.1553066E0,1.9593025E1,9.1976494E1,1.40778475E1,1.6868994E1,2.8132522E0,2.2424834E0,3.4718602E0,4.976018E0,3.3118265E0,2.9009593E0,3.3479584E1,3.0601377E0,4.060043E0,2.5647497E0,1.1056824E1,8.536201E0,7.769451E1,1.4281985E1,3.9617567E0,1.0116091E1,7.4314547E0,9.437539E0,2.659807E0,2.3162112E0,3.0730469E1,2.7491164E0],"tree_param":{"num_deleted":"0","num_feature":"6","num_nodes":"87","size_leaf_vector":"1"}},{"base_weights":[-2.1010011E-2,-1.347716E0,4.069979E-2,-8.264805E-2,7.9661375E-3,2.1575506E-1,-1.3577786E-1,5.7356145E-2,7.6306885E-1,-5.3707284E-1,2.0320442E-1,-1.0495247E-1,9.339981E-1,-3.017529E-2,9.7276044E-1,5.691559E-2,-7.050395E-1,-1.2068366E-1,4.6721545E-1,2.2955431E-1,-4.3449888E-1,1.2043834E0,-1.6801741E-2,1.0743165E0,-4.2501977E-3,-4.20899E-1,-1.5099099E0,4.061542E-1,-6.244562E-1,-2.9589474E-1,7.478838E-1,3.470443E-1,-6.8771735E-2,-5.5011654E-1,5.9026998E-2,8.168341E-2,3.95942E-1,6.534659E-1,1.3059428E0,-5.7150674E-1,7.399028E-1,-8.7616496E-2,-7.8125376E-1,6.7905205E-1,-2.657842E-2,5.6458563E-2,-9.716964E-1,3.327752E-1,-7.3782705E-2,8.913726E-1,-2.1391472E-2,1.005763E0,1.9622114E-1,-7.598399E-1,1.6752614E-1,5.5018753E-2,-1.7436294E-2,6.631389E-2,-1.3559006E-1,7.7673756E-2,6.4030194E-1,-2.523649E-1,-1.3642037E0,-1.9617525E-3,6.587886E-2,5.5578463E-3,-6.831936E-2,-4.344878E-3,8.3827066E-1,-1.374832E0,-1.4143868E-2,-2.3484772E-2,4.5866944E-2,1.0126008E0,-1.0928183E-2,6.654409E-2,2.2422524E-2,-2.6140982E-2,1.796518E-2,-2.6832152E-2,-8.223886E-2,4.2302936E-2,-3.6169913E-2,-1.603227E-2,6.815797E-3,3.194288E-3,4.740323E-2,-4.580703E-2,1.9678464E-2,-8.516133E-2,4.162393E-3,1.7559929E-2,5.099953E-2,-8.09005E-3,-8.618912E-2,7.597994E-3,-7.692805E-3,-3.328607E-3,5.6234766E-2],"categories":[],"categories_nodes":[],"categories_segments":[],"categories_sizes":[],"default_left":[0,0,0,0,0,0,0,0,0,0,0,0,0,0,0,0,0,0,0,0,0,0,0,0,0,0,0,0,0,0,0,0,0,0,0,0,0,0,0,0,0,0,0,0,0,0,0,0,0,0,0,0,0,0,0,0,0,0,0,0,0,0,0,0,0,0,0,0,0,0,0,0,0,0,0,0,0,0,0,0,0,0,0,0,0,0,0,0,0,0,0,0,0,0,0,0,0,0,0],"id":3,"left_children":[1,3,5,-1,-1,7,9,11,13,15,17,19,21,-1,23,-1,25,27,29,31,33,35,-1,37,-1,39,41,43,45,47,49,51,-1,53,-1,-1,55,57,59,61,63,-1,65,67,-1,-1,69,71,-1,73,-1,75,77,79,81,-1,-1,-1,83,-1,85,87,89,-1,-1,-1,-1,-1,91,93,95,-1,-1,97,-1,-1,-1,-1,-1,-1,-1,-1,-1,-1,-1,-1,-1,-1,-1,-1,-1,-1,-1,-1,-1,-1,-1,-1,-1],"loss_changes":[2.4453392E1,6.369999E0,8.856697E0,0E0,0E0,1.2425711E1,1.9548729E1,1.6123882E1,9.814974E0,1.929458E1,6.742613E0,1.0675101E1,6.4817038E0,0E0,3.1315289E0,0E0,1.3164503E1,9.784098E0,9.491764E0,9.578321E0,9.737648E0,4.492485E0,0E0,1.6709099E0,0E0,8.462117E0,1.343792E0,5.0077868E0,1.2514891E1,9.654699E0,5.767679E0,4.349862E0,0E0,7.0659027E0,0E0,0E0,3.770337E0,6.1227403E0,1.5923595E0,1.0095705E1,2.6247754E0,0E0,3.0961597E0,1.8416982E0,0E0,0E0,6.229787E0,4.5946274E0,0E0,4.093771E0,0E0,9.043131E-1,4.7006955E0,6.1995487E0,7.410023E0,0E0,0E0,0E0,3.4860063E-1,0E0,9.962516E-1,1.3501541E1,5.8431892E0,0E0,0E0,0E0,0E0,0E0,7.129488E-1,4.538973E0,1.581341E-1,0E0,0E0,3.234995E0,0E0,0E0,0E0,0E0,0E0,0E0,0E0,0E0,0E0,0E0,0E0,0E0,0E0,0E0,0E0,0E0,0E0,0E0,0E0,0E0,0E0,0E0,0E0,0E0,0E0],"parents":[2147483647,0,0,1,1,2,2,5,5,6,6,7,7,8,8,9,9,10,10,11,11,12,12,14,14,16,16,17,17,18,18,19,19,20,20,21,21,23,23,25,25,26,26,27,27,28,28,29,29,30,30,31,31,33,33,36,36,37,37,38,38,39,39,40,40,42,42,43,43,46,46,47,47,49,49,51,51,52,52,53,53,54,54,58,58,60,60,61,61,62,62,68,68,69,69,70,70,73,73],"right_children":[2,4,6,-1,-1,8,10,12,14,16,18,20,22,-1,24,-1,26,28,30,32,34,36,-1,38,-1,40,42,44,46,48,50,52,-1,54,-1,-1,56,58,60,62,64,-1,66,68,-1,-1,70,72,-1,74,-1,76,78,80,82,-1,-1,-1,84,-1,86,88,90,-1,-1,-1,-1,-1,92,94,96,-1,-1,98,-1,-1,-1,-1,-1,-1,-1,-1,-1,-1,-1,-1,-1,-1,-1,-1,-1,-1,-1,-1,-1,-1,-1,-1,-1],"split_conditions":[2E0,2E1,1.5E1,-8.264805E-2,7.9661375E-3,5.5E1,2.8E1,1.2E1,2E0,2.1E1,9E0,1E1,1.8E1,-3.017529E-2,1E1,5.691559E-2,1.3E1,3E0,1E1,9E0,2.5E1,1.3E1,-1.6801741E-2,1E1,-4.2501977E-3,1E1,5.2E1,6.3E1,3.8E1,4.7E1,5.9E1,1E1,-6.8771735E-2,2.2E1,5.9026998E-2,8.168341E-2,3E0,5.9E1,1.9E1,2.2E1,1.5E1,-8.7616496E-2,5.7E1,3E1,-2.657842E-2,5.6458563E-2,6.6E1,4.2E1,-7.3782705E-2,2.4E1,-2.1391472E-2,8E0,1.8E1,2E1,1.1E1,5.5018753E-2,-1.7436294E-2,6.631389E-2,7E0,7.7673756E-2,7E0,1.4E1,2E1,-1.9617525E-3,6.587886E-2,5.5578463E-3,-6.831936E-2,-4.344878E-3,9E0,5E0,4.6E1,-2.3484772E-2,4.5866944E-2,2.9E1,-1.0928183E-2,6.654409E-2,2.2422524E-2,-2.6140982E-2,1.796518E-2,-2.6832152E-2,-8.223886E-2,4.2302936E-2,-3.6169913E-2,-1.603227E-2,6.815797E-3,3.194288E-3,4.740323E-2,-4.580703E-2,1.9678464E-2,-8.516133E-2,4.162393E-3,1.7559929E-2,5.099953E-2,-8.09005E-3,-8.618912E-2,7.597994E-3,-7.692805E-3,-3.328607E-3,5.6234766E-2],"split_indices":[3,1,0,0,0,2,0,0,1,2,1,3,5,0,0,0,1,1,3,0,5,3,0,5,0,1,2,2,2,0,0,2,0,3,0,0,5,2,5,0,5,0,2,0,0,0,2,0,0,1,0,3,2,3,1,0,0,0,5,0,0,5,3,0,0,0,0,0,5,3,0,0,0,0,0,0,0,0,0,0,0,0,0,0,0,0,0,0,0,0,0,0,0,0,0,0,0,0,0],"split_type":[0,0,0,0,0,0,0,0,0,0,0,0,0,0,0,0,0,0,0,0,0,0,0,0,0,0,0,0,0,0,0,0,0,0,0,0,0,0,0,0,0,0,0,0,0,0,0,0,0,0,0,0,0,0,0,0,0,0,0,0,0,0,0,0,0,0,0,0,0,0,0,0,0,0,0,0,0,0,0,0,0,0,0,0,0,0,0,0,0,0,0,0,0,0,0,0,0,0,0],"sum_hessian":[2.9701288E2,1.2274854E1,2.84738E2,1.0126867E1,2.1479857E0,1.4283334E2,1.4190468E2,1.11630875E2,3.1202463E1,6.471235E1,7.719233E1,9.493426E1,1.669662E1,3.9010403E0,2.7301422E1,5.370203E0,5.9342148E1,3.490897E1,4.228336E1,4.7263134E1,4.767112E1,1.3808527E1,2.8880932E0,2.489555E1,2.4058716E0,4.4984406E1,1.4357741E1,1.715857E1,1.7750402E1,1.1355258E1,3.09281E1,4.4769634E1,2.4934993E0,4.510175E1,2.569373E0,8.352541E0,5.4559865E0,1.0194319E1,1.4701232E1,4.026757E1,4.716837E0,9.719302E0,4.6384387E0,1.35043545E1,3.6542144E0,2.5616663E0,1.5188736E1,7.8761473E0,3.4791107E0,2.777961E1,3.148491E0,7.284808E0,3.7484825E1,3.485651E1,1.0245239E1,2.5582695E0,2.897717E0,5.134983E0,5.0593357E0,9.743942E0,4.9572897E0,2.9649118E1,1.0618451E1,2.4050753E0,2.3117616E0,2.1576898E0,2.4807487E0,2.4022284E0,1.1102127E1,1.03820505E1,4.806686E0,3.4022067E0,4.473941E0,2.5123316E1,2.6562939E0,3.7241943E0,3.560614E0,6.522197E0,3.096263E1,2.9118681E1,5.737828E0,5.8444414E0,4.400798E0,2.9038005E0,2.1555355E0,2.1458523E0,2.8114376E0,1.4416302E1,1.5232818E1,8.460193E0,2.158258E0,3.8134365E0,7.28869E0,2.646364E0,7.7356863E0,2.1558886E0,2.6507974E0,2.4022386E0,2.2721077E1],"tree_param":{"num_deleted":"0","num_feature":"6","num_nodes":"99","size_leaf_vector":"1"}},{"base_weights":[-4.0957425E-2,-1.2455021E0,1.0379897E-2,9.056958E-3,-7.875715E-2,-2.299721E-2,1.1859663E0,7.2411424E-3,-1.080958E0,2.7598385E-2,7.654127E-2,-8.934338E-2,3.456248E-1,-2.0262567E-2,-7.319038E-2,-1.5877284E-1,2.9442236E-1,9.321071E-1,9.588427E-2,2.046768E-1,-2.85685E-1,5.3485596E-1,-8.222045E-1,1.5272284E-1,6.838476E-2,-7.663343E-2,2.9046902E-1,3.3210573E-1,-6.743234E-2,-8.557632E-2,-1.680698E-1,2.8158352E-1,5.674581E-2,-6.793348E-2,4.5883702E-4,4.7410917E-2,-2.661675E-2,3.9112687E-1,-2.7052475E-2,-2.9436296E-2,2.6602468E-2,2.355537E-2,-1.2417985E-2,2.4994766E-2,-2.8464843E-2,7.6245493E-3,5.064414E-2],"categories":[],"categories_nodes":[],"categories_segments":[],"categories_sizes":[],"default_left":[0,0,0,0,0,0,0,0,0,0,0,0,0,0,0,0,0,0,0,0,0,0,0,0,0,0,0,0,0,0,0,0,0,0,0,0,0,0,0,0,0,0,0,0,0,0,0],"id":4,"left_children":[1,3,5,-1,-1,7,9,11,13,-1,-1,15,17,-1,-1,19,21,23,25,27,29,31,33,35,-1,-1,37,39,-1,-1,41,43,-1,-1,-1,-1,-1,45,-1,-1,-1,-1,-1,-1,-1,-1,-1],"loss_changes":[1.8064983E1,5.9011173E0,1.1052397E1,0E0,0E0,8.77997E0,8.5526943E-1,8.776111E0,1.3796368E0,0E0,0E0,5.6143837E0,8.643297E0,0E0,0E0,8.250301E0,9.128359E0,5.7972145E0,1.4049362E1,9.661298E0,2.1857086E1,3.819552E0,2.7455668E0,4.5747514E0,0E0,0E0,3.491675E0,8.381166E0,0E0,0E0,6.43421E0,4.089167E0,0E0,0E0,0E0,0E0,0E0,5.118363E0,0E0,0E0,0E0,0E0,0E0,0E0,0E0,0E0,0E0],"parents":[2147483647,0,0,1,1,2,2,5,5,6,6,7,7,8,8,11,11,12,12,15,15,16,16,17,17,18,18,19,19,20,20,21,21,22,22,23,23,26,26,27,27,30,30,31,31,37,37],"right_children":[2,4,6,-1,-1,8,10,12,14,-1,-1,16,18,-1,-1,20,22,24,26,28,30,32,34,36,-1,-1,38,40,-1,-1,42,44,-1,-1,-1,-1,-1,46,-1,-1,-1,-1,-1,-1,-1,-1,-1],"split_conditions":[2E0,4E0,2.5E1,9.056958E-3,-7.875715E-2,7.8E1,2.8E1,6.1E1,1.9E1,2.7598385E-2,7.654127E-2,2.2E1,1E1,-2.0262567E-2,-7.319038E-2,2.1E1,1.6E1,1.3E1,1.9E1,2E1,2.4E1,3.4E1,9E0,6E0,6.838476E-2,-7.663343E-2,6.1E1,4E0,-6.743234E-2,-8.557632E-2,2.6E1,2.6E1,5.674581E-2,-6.793348E-2,4.5883702E-4,4.7410917E-2,-2.661675E-2,5.4E1,-2.7052475E-2,-2.9436296E-2,2.6602468E-2,2.355537E-2,-1.2417985E-2,2.4994766E-2,-2.8464843E-2,7.6245493E-3,5.064414E-2],"split_indices":[3,5,5,0,0,2,2,2,5,0,0,3,0,0,0,2,1,5,0,3,2,0,0,1,0,0,0,1,0,0,2,0,0,0,0,0,0,0,0,0,0,0,0,0,0,0,0],"split_type":[0,0,0,0,0,0,0,0,0,0,0,0,0,0,0,0,0,0,0,0,0,0,0,0,0,0,0,0,0,0,0,0,0,0,0,0,0,0,0,0,0,0,0,0,0,0,0],"sum_hessian":[2.9092447E2,1.0941409E1,2.7998306E2,2.138174E0,8.803235E0,2.7320667E2,6.776413E0,2.6658047E2,6.6261764E0,3.303579E0,3.4728339E0,2.0795894E2,5.8621544E1,3.1410048E0,3.4851716E0,1.765961E2,3.136283E1,1.6691494E1,4.193005E1,4.5546837E1,1.3104927E2,2.6234901E1,5.1279273E0,6.468399E0,1.0223096E1,3.7412775E0,3.818877E1,4.282022E1,2.7266161E0,8.953589E0,1.2209568E2,1.9481457E1,6.7534437E0,2.731282E0,2.396645E0,2.815209E0,3.6531901E0,3.453752E1,3.65125E0,7.2921386E0,3.5528084E1,1.308223E1,1.0901345E2,1.583193E1,3.6495278E0,2.5858168E1,8.679355E0],"tree_param":{"num_deleted":"0","num_feature":"6","num_nodes":"47","size_leaf_vector":"1"}},{"base_weights":[5.098036E-2,-5.902722E-1,1.4916673E-1,5.733707E-2,-7.3527104E-1,-8.425453E-2,2.8100812E-1,-9.2689633E-1,2.2506477E-1,-2.322086E-1,4.6630323E-1,8.519836E-1,2.0583817E-1,-7.6363E-2,-6.394155E-1,5.647563E-2,-2.5912493E-2,7.0236397E-1,-3.2607523E-1,8.643845E-1,-7.627423E-1,-2.125421E-2,1.1233715E0,-1.137587E0,2.8174272E-1,-6.862246E-2,-4.5627037E-1,6.283606E-2,-1.0213306E-2,-1.100141E0,-2.2615859E-1,-9.813693E-2,1.2767615E0,-6.787653E-2,6.826167E-3,6.313186E-2,6.6782534E-1,-7.741278E-2,1.8827388E-3,3.350122E-1,-9.3366235E-1,8.715408E-2,-9.034024E-1,3.6599168E-3,-7.7427156E-2,-1.9821068E-2,-6.233297E-1,-1.248452E-2,5.420487E-3,7.428669E-2,2.9287612E-2,5.7529014E-2,-1.7703249E-3,4.4018042E-1,3.3236858E-2,1.7431524E-3,-7.1596585E-2,6.146181E-1,-6.1527457E-2,-7.502913E-2,-1.9812101E-1,3.182879E-1,-3.8283423E-1,3.7888405E-1,-1.38993E0,2.8478065E-1,9.122439E-1,-9.3843514E-1,2.3701607E-1,3.1051887E-3,6.76364E-2,3.6386423E-2,-6.494411E-2,-4.2281207E-2,3.6103148E-2,-4.036374E-2,1.6782625E-2,3.943012E-2,-2.0699494E-2,-8.485667E-2,-8.476158E-3,2.2993473E-2,-5.1139654E-3,1.7311143E-2,5.3038295E-2,6.1581978E-3,-7.3847316E-2,1.8473193E-2,-2.798745E-2],"categories":[],"categories_nodes":[],"categories_segments":[],"categories_sizes":[],"default_left":[0,0,0,0,0,0,0,0,0,0,0,0,0,0,0,0,0,0,0,0,0,0,0,0,0,0,0,0,0,0,0,0,0,0,0,0,0,0,0,0,0,0,0,0,0,0,0,0,0,0,0,0,0,0,0,0,0,0,0,0,0,0,0,0,0,0,0,0,0,0,0,0,0,0,0,0,0,0,0,0,0,0,0,0,0,0,0,0,0],"id":5,"left_children":[1,3,5,-1,7,9,11,13,15,17,19,21,23,-1,25,-1,-1,27,29,31,33,-1,35,37,39,-1,41,-1,-1,43,45,47,49,-1,-1,-1,51,-1,-1,53,55,57,59,-1,-1,61,63,-1,-1,-1,-1,-1,-1,65,67,-1,-1,69,-1,-1,71,73,75,77,79,81,83,85,87,-1,-1,-1,-1,-1,-1,-1,-1,-1,-1,-1,-1,-1,-1,-1,-1,-1,-1,-1,-1],"loss_changes":[1.9399593E1,1.11517515E1,8.233939E0,0E0,7.2723923E0,8.015013E0,7.1520147E0,4.580099E0,5.4190297E0,6.999102E0,1.0881071E1,7.2505617E0,1.5838484E1,0E0,2.5274487E0,0E0,0E0,3.9562104E0,5.2280126E0,6.575163E0,3.203405E0,0E0,1.967125E-1,4.081975E0,9.690422E0,0E0,5.009545E0,0E0,0E0,4.236515E0,5.2305727E0,2.0870195E-1,7.827358E-1,0E0,0E0,0E0,2.0643094E0,0E0,0E0,4.4125824E0,3.1122808E0,7.7568445E0,4.4286604E0,0E0,0E0,5.4162493E0,1.7306526E1,0E0,0E0,0E0,0E0,0E0,0E0,7.3228283E0,7.5748544E0,0E0,0E0,3.121334E0,0E0,0E0,7.3625913E0,1.1363252E1,6.753009E0,3.656682E0,4.4320793E0,5.4156437E0,1.7466412E0,3.9772987E0,3.5302854E0,0E0,0E0,0E0,0E0,0E0,0E0,0E0,0E0,0E0,0E0,0E0,0E0,0E0,0E0,0E0,0E0,0E0,0E0,0E0,0E0],"parents":[2147483647,0,0,1,1,2,2,4,4,5,5,6,6,7,7,8,8,9,9,10,10,11,11,12,12,14,14,17,17,18,18,19,19,20,20,22,22,23,23,24,24,26,26,29,29,30,30,31,31,32,32,36,36,39,39,40,40,41,41,42,42,45,45,46,46,53,53,54,54,57,57,60,60,61,61,62,62,63,63,64,64,65,65,66,66,67,67,68,68],"right_children":[2,4,6,-1,8,10,12,14,16,18,20,22,24,-1,26,-1,-1,28,30,32,34,-1,36,38,40,-1,42,-1,-1,44,46,48,50,-1,-1,-1,52,-1,-1,54,56,58,60,-1,-1,62,64,-1,-1,-1,-1,-1,-1,66,68,-1,-1,70,-1,-1,72,74,76,78,80,82,84,86,88,-1,-1,-1,-1,-1,-1,-1,-1,-1,-1,-1,-1,-1,-1,-1,-1,-1,-1,-1,-1],"split_conditions":[4E0,2.9E1,3.5E1,5.733707E-2,2.1E1,2.1E1,5.3E1,2E0,6E1,5E0,2.6E1,4.4E1,5.8E1,-7.6363E-2,5.7E1,5.647563E-2,-2.5912493E-2,1E1,3E0,1.5E1,1.6E1,-2.125421E-2,1E1,2E1,2.5E1,-6.862246E-2,7.2E1,6.283606E-2,-1.0213306E-2,3.4E1,1.1E1,1.1E1,1.3E1,-6.787653E-2,6.826167E-3,6.313186E-2,4.1E1,-7.741278E-2,1.8827388E-3,1.9E1,6.6E1,4.9E1,8.4E1,3.6599168E-3,-7.7427156E-2,5.8E1,8E0,-1.248452E-2,5.420487E-3,7.428669E-2,2.9287612E-2,5.7529014E-2,-1.7703249E-3,1.5E1,2E1,1.7431524E-3,-7.1596585E-2,6.6E1,-6.1527457E-2,-7.502913E-2,8.5E1,4E1,8.3E1,1.3E1,2.4E1,9E0,8E0,7E0,7.8E1,3.1051887E-3,6.76364E-2,3.6386423E-2,-6.494411E-2,-4.2281207E-2,3.6103148E-2,-4.036374E-2,1.6782625E-2,3.943012E-2,-2.0699494E-2,-8.485667E-2,-8.476158E-3,2.2993473E-2,-5.1139654E-3,1.7311143E-2,5.3038295E-2,6.1581978E-3,-7.3847316E-2,1.8473193E-2,-2.798745E-2],"split_indices":[3,4,2,0,1,1,4,3,4,3,2,4,4,0,4,0,0,5,5,2,5,0,1,3,3,0,4,0,0,4,1,3,3,0,0,0,2,0,0,5,4,2,4,0,0,4,3,0,0,0,0,0,0,5,5,0,0,4,0,0,4,4,4,5,5,5,1,3,2,0,0,0,0,0,0,0,0,0,0,0,0,0,0,0,0,0,0,0,0],"split_type":[0,0,0,0,0,0,0,0,0,0,0,0,0,0,0,0,0,0,0,0,0,0,0,0,0,0,0,0,0,0,0,0,0,0,0,0,0,0,0,0,0,0,0,0,0,0,0,0,0,0,0,0,0,0,0,0,0,0,0,0,0,0,0,0,0,0,0,0,0,0,0,0,0,0,0,0,0,0,0,0,0,0,0,0,0,0,0,0,0],"sum_hessian":[3.0571616E2,3.9929028E1,2.6578714E2,2.5440423E0,3.7384983E1,9.6066025E1,1.6972112E2,3.1195131E1,6.1898518E0,7.617372E1,1.9892305E1,1.8542444E1,1.5117867E2,8.704477E0,2.2490654E1,2.5578988E0,3.6319528E0,6.3607783E0,6.981294E1,1.5249709E1,4.6425962E0,3.150557E0,1.5391887E1,7.336892E0,1.4384177E2,3.1977935E0,1.9292862E1,3.7076173E0,2.6531608E0,6.836808E0,6.2976135E1,4.8024426E0,1.0447267E1,2.487636E0,2.1549602E0,1.043124E1,4.960647E0,5.2018123E0,2.1350796E0,1.3849605E2,5.3457227E0,9.072106E0,1.0220755E1,2.121696E0,4.715112E0,4.2135757E1,2.0840376E1,2.6494956E0,2.152947E0,7.1384053E0,3.308861E0,2.5642247E0,2.3964224E0,1.0236379E2,3.6132256E1,2.13187E0,3.2138524E0,6.859773E0,2.2123332E0,4.9239125E0,5.296842E0,2.188001E1,2.0255747E1,9.251371E0,1.1589005E1,7.821821E1,2.4145586E1,5.6389804E0,3.0493275E1,4.543135E0,2.316638E0,3.0610669E0,2.2357752E0,5.3535895E0,1.652642E1,1.2655833E1,7.5999136E0,6.1030183E0,3.1483526E0,8.946377E0,2.642629E0,5.372657E1,2.4491638E1,5.711193E0,1.8434393E1,2.157352E0,3.4816284E0,2.6606688E1,3.8865862E0],"tree_param":{"num_deleted":"0","num_feature":"6","num_nodes":"89","size_leaf_vector":"1"}},{"base_weights":[3.605394E-2,5.899152E-3,1.2091691E0,-1.0120617E-1,3.0086836E-1,7.231625E-2,3.2357614E-2,-1.6597876E-2,-1.0283216E0,-6.295769E-2,5.8233786E-1,1.0353721E-1,-4.1959363E-1,-8.267342E-2,8.690862E-2,-7.245061E-2,1.3497208E-1,6.6640973E-1,-1.9529965E-2,1.5365812E-1,-9.8773926E-1,1.2575963E-1,-9.1646445E-1,-2.4081161E-2,3.396341E-2,3.183594E-1,-6.613984E-2,8.137087E-1,2.0304886E-1,8.128546E-2,1.0416418E0,-9.3741985E-3,-7.215828E-2,6.044857E-1,-7.0708376E-1,-1.4673737E0,-3.745031E-2,3.8969867E-2,5.0341453E-2,6.285047E-2,6.5129685E-1,-3.1089777E-2,7.2540784E-1,1.8859467E-2,8.6273384E-1,6.528707E-2,1.8384766E-2,-9.838018E-2,9.726249E-1,-7.5112306E-2,1.840047E-2,7.066258E-3,-8.719248E-2,5.947926E-1,-6.602066E-2,5.9597105E-1,-3.8643128E-1,9.105349E-2,9.44342E-1,4.8892338E-2,3.7138306E-3,1.2773319E-2,-1.0615781E-2,-3.5215977E-3,5.802651E-2,-1.4013906E-2,7.904099E-3,2.3043778E-2,7.450431E-2,-4.269214E-3,4.6319153E-2,5.8122676E-2,2.2461561E-4,1.6850542E-2,-7.532797E-2,6.213165E-2,-2.196113E-2,5.342566E-2,4.8849974E-3],"categories":[],"categories_nodes":[],"categories_segments":[],"categories_sizes":[],"default_left":[0,0,0,0,0,0,0,0,0,0,0,0,0,0,0,0,0,0,0,0,0,0,0,0,0,0,0,0,0,0,0,0,0,0,0,0,0,0,0,0,0,0,0,0,0,0,0,0,0,0,0,0,0,0,0,0,0,0,0,0,0,0,0,0,0,0,0,0,0,0,0,0,0,0,0,0,0,0,0],"id":6,"left_children":[1,3,5,7,9,-1,-1,11,13,15,17,19,21,-1,23,-1,25,27,-1,29,31,33,35,-1,-1,37,-1,39,41,43,45,-1,-1,47,49,51,53,55,-1,-1,57,-1,59,61,63,-1,-1,65,67,-1,-1,-1,-1,69,-1,71,73,75,77,-1,-1,-1,-1,-1,-1,-1,-1,-1,-1,-1,-1,-1,-1,-1,-1,-1,-1,-1,-1],"loss_changes":[1.0564441E1,9.266864E0,6.1558723E-2,1.6865757E1,8.037708E0,0E0,0E0,9.641271E0,1.2680883E1,9.792593E0,3.8715115E0,8.548721E0,1.2505145E1,0E0,2.8224745E0,0E0,8.849052E0,2.6335907E0,0E0,9.403843E0,2.2354445E0,9.469199E0,1.15896225E1,0E0,0E0,5.5021753E0,0E0,1.3975964E0,5.287019E0,6.6963754E0,1.4852228E0,0E0,0E0,3.9613304E0,8.023055E0,6.8092995E0,9.132484E0,5.3325024E0,0E0,0E0,3.9534483E0,0E0,1.1327834E0,7.079938E0,2.9042735E0,0E0,0E0,3.2622868E-1,1.9338732E0,0E0,0E0,0E0,0E0,1.789345E0,0E0,3.2507672E0,1.0892617E1,6.381541E0,1.5826731E0,0E0,0E0,0E0,0E0,0E0,0E0,0E0,0E0,0E0,0E0,0E0,0E0,0E0,0E0,0E0,0E0,0E0,0E0,0E0,0E0],"parents":[2147483647,0,0,1,1,2,2,3,3,4,4,7,7,8,8,9,9,10,10,11,11,12,12,14,14,16,16,17,17,19,19,20,20,21,21,22,22,25,25,27,27,28,28,29,29,30,30,33,33,34,34,35,35,36,36,37,37,40,40,42,42,43,43,44,44,47,47,48,48,53,53,55,55,56,56,57,57,58,58],"right_children":[2,4,6,8,10,-1,-1,12,14,16,18,20,22,-1,24,-1,26,28,-1,30,32,34,36,-1,-1,38,-1,40,42,44,46,-1,-1,48,50,52,54,56,-1,-1,58,-1,60,62,64,-1,-1,66,68,-1,-1,-1,-1,70,-1,72,74,76,78,-1,-1,-1,-1,-1,-1,-1,-1,-1,-1,-1,-1,-1,-1,-1,-1,-1,-1,-1,-1],"split_conditions":[2.5E1,2.9E1,1.1E1,2.3E1,8E0,7.231625E-2,3.2357614E-2,1.9E1,1.5E1,6.2E1,5.9E1,8.5E1,5.8E1,-8.267342E-2,5.7E1,-7.245061E-2,7.1E1,2.2E1,-1.9529965E-2,7E1,3.2E1,2.7E1,6E1,-2.4081161E-2,3.396341E-2,2E1,-6.613984E-2,6.2E1,1.5E1,2.2E1,7.3E1,-9.3741985E-3,-7.215828E-2,2.3E1,4.1E1,1.1E1,7.2E1,4.8E1,5.0341453E-2,6.285047E-2,6.1E1,-3.1089777E-2,6E1,9E0,6E0,6.528707E-2,1.8384766E-2,7E0,2.4E1,-7.5112306E-2,1.840047E-2,7.066258E-3,-8.719248E-2,8.3E1,-6.602066E-2,7E0,3E0,4.4E1,7.3E1,4.8892338E-2,3.7138306E-3,1.2773319E-2,-1.0615781E-2,-3.5215977E-3,5.802651E-2,-1.4013906E-2,7.904099E-3,2.3043778E-2,7.450431E-2,-4.269214E-3,4.6319153E-2,5.8122676E-2,2.2461561E-4,1.6850542E-2,-7.532797E-2,6.213165E-2,-2.196113E-2,5.342566E-2,4.8849974E-3],"split_indices":[5,0,1,0,1,0,0,5,5,4,0,4,4,0,2,0,2,1,0,2,2,2,2,0,0,5,0,4,5,1,2,0,0,5,2,2,2,2,0,0,2,0,2,1,5,0,0,0,2,0,0,0,0,4,0,5,1,2,2,0,0,0,0,0,0,0,0,0,0,0,0,0,0,0,0,0,0,0,0],"split_type":[0,0,0,0,0,0,0,0,0,0,0,0,0,0,0,0,0,0,0,0,0,0,0,0,0,0,0,0,0,0,0,0,0,0,0,0,0,0,0,0,0,0,0,0,0,0,0,0,0,0,0,0,0,0,0,0,0,0,0,0,0,0,0,0,0,0,0,0,0,0,0,0,0,0,0,0,0,0,0],"sum_hessian":[2.9784277E2,2.9135846E2,6.484307E0,2.1422778E2,7.713067E1,3.4535484E0,3.0307581E0,1.9724515E2,1.6982634E1,3.3982014E1,4.3148655E1,1.5252097E2,4.4724197E1,1.05731735E1,6.409461E0,3.4564545E0,3.0525558E1,4.0006714E1,3.141941E0,1.4664494E2,5.8760176E0,2.1677929E1,2.3046267E1,3.365898E0,3.0435631E0,2.780882E1,2.7167377E0,2.9782862E1,1.0223852E1,1.3660303E2,1.0041913E1,2.6431885E0,3.2328293E0,1.3939542E1,7.7383866E0,1.3755726E1,9.290542E0,2.0532913E1,7.275908E0,6.1786594E0,2.3604202E1,3.890344E0,6.3335085E0,1.2744613E2,9.1568985E0,6.54117E0,3.5007434E0,5.043347E0,8.896194E0,4.219923E0,3.5184636E0,2.0890777E0,1.1666648E1,6.5828905E0,2.7076511E0,8.717564E0,1.181535E1,8.556538E0,1.5047665E1,4.2024736E0,2.131035E0,6.293119E1,6.451494E1,2.3999565E0,6.756942E0,2.8962758E0,2.1470711E0,5.4233537E0,3.4728405E0,2.400779E0,4.1821113E0,3.9597862E0,4.757777E0,7.603628E0,4.2117214E0,2.2742562E0,6.2822814E0,1.2894463E1,2.153202E0],"tree_param":{"num_deleted":"0","num_feature":"6","num_nodes":"79","size_leaf_vector":"1"}},{"base_weights":[2.462772E-2,-7.451293E-2,8.0649085E-2,-1.2987605E-1,3.0393863E-1,2.4510907E-1,-2.3531014E-1,6.681959E-1,4.364461E-2,-1.4842667E-1,1.0915643E0,-7.59943E-2,-1.5514806E-1,-8.3718944E-1,8.24475E-1,-1.7075147E-1,8.2155657E-1,5.8385843E-1,-5.882849E-1,7.149912E-2,5.932418E-1,-7.1803145E-2,-7.894108E-2,-7.131921E-2,6.390087E-3,1.2158262E0,3.5643977E-1,-3.105524E-2,-7.4860685E-2,-2.1868227E-2,1.1476262E0,5.9800383E-2,-2.312622E-2,-9.594649E-1,2.8024366E-2,-4.098629E-3,5.3532597E-2,-2.2467154E-1,3.3049455E-1,6.734417E-1,6.9752656E-2,-2.2592406E-1,6.3406235E-1,-1.5853302E-1,5.3364437E-2,7.708274E-2,7.105375E-1,-7.86048E-2,-1.2024921E-1,3.6988515E-2,-1.3709673E0,-4.184315E-1,7.224362E-1,5.897546E-2,9.9535406E-2,3.292803E-2,-8.618512E-1,8.646189E-1,-1.9659994E-2,-3.023531E-1,8.3532125E-1,-7.953264E-3,5.3074278E-2,8.355275E-3,-1.6147258E-2,2.5218567E-2,-2.2535823E-2,1.0039312E-2,-8.303591E-2,-5.161221E-2,4.4048317E-2,4.404837E-2,-8.3204545E-3,7.4289064E-3,9.1227907E-4,-7.0923954E-2,1.738048E-3,7.247396E-4,6.0663212E-2,-2.5863757E-2,2.1358354E-2,-3.5272278E-3,6.553396E-2],"categories":[],"categories_nodes":[],"categories_segments":[],"categories_sizes":[],"default_left":[0,0,0,0,0,0,0,0,0,0,0,0,0,0,0,0,0,0,0,0,0,0,0,0,0,0,0,0,0,0,0,0,0,0,0,0,0,0,0,0,0,0,0,0,0,0,0,0,0,0,0,0,0,0,0,0,0,0,0,0,0,0,0,0,0,0,0,0,0,0,0,0,0,0,0,0,0,0,0,0,0,0,0],"id":7,"left_children":[1,-1,3,5,7,9,11,13,15,17,19,-1,21,23,25,27,29,31,33,-1,35,-1,37,-1,-1,39,41,43,-1,-1,45,-1,-1,47,-1,-1,-1,49,51,53,-1,55,57,59,-1,-1,61,-1,63,65,67,69,71,-1,73,-1,75,77,-1,79,81,-1,-1,-1,-1,-1,-1,-1,-1,-1,-1,-1,-1,-1,-1,-1,-1,-1,-1,-1,-1,-1,-1],"loss_changes":[2.5001701E1,0E0,1.3374675E1,5.8581753E0,1.3051895E1,1.1050714E1,1.16088705E1,1.4201216E1,1.373888E1,7.814328E0,9.213753E-1,0E0,1.0564012E1,3.53539E0,9.188805E0,1.1951247E1,7.8040304E0,6.4498205E0,6.928836E0,0E0,2.0068083E0,0E0,6.2974787E0,0E0,0E0,1.8013725E0,4.239708E0,8.513936E0,0E0,0E0,1.3854885E0,0E0,0E0,5.8246803E0,0E0,0E0,0E0,2.3300797E1,8.457587E0,2.4779606E0,0E0,5.582946E0,4.46588E0,8.0099745E0,0E0,0E0,2.8191414E0,0E0,4.0451896E-1,1.48348875E1,6.906084E0,9.027218E0,2.7682285E0,0E0,1.8336989E-2,0E0,2.854312E0,4.2919426E0,0E0,7.769655E0,3.161244E0,0E0,0E0,0E0,0E0,0E0,0E0,0E0,0E0,0E0,0E0,0E0,0E0,0E0,0E0,0E0,0E0,0E0,0E0,0E0,0E0,0E0,0E0],"parents":[2147483647,0,0,2,2,3,3,4,4,5,5,6,6,7,7,8,8,9,9,10,10,12,12,13,13,14,14,15,15,16,16,17,17,18,18,20,20,22,22,25,25,26,26,27,27,30,30,33,33,37,37,38,38,39,39,41,41,42,42,43,43,46,46,48,48,49,49,50,50,51,51,52,52,54,54,56,56,57,57,59,59,60,60],"right_children":[2,-1,4,6,8,10,12,14,16,18,20,-1,22,24,26,28,30,32,34,-1,36,-1,38,-1,-1,40,42,44,-1,-1,46,-1,-1,48,-1,-1,-1,50,52,54,-1,56,58,60,-1,-1,62,-1,64,66,68,70,72,-1,74,-1,76,78,-1,80,82,-1,-1,-1,-1,-1,-1,-1,-1,-1,-1,-1,-1,-1,-1,-1,-1,-1,-1,-1,-1,-1,-1],"split_conditions":[2E0,-7.451293E-2,1.4E1,2.1E1,1.9E1,1.2E1,2.4E1,2.5E1,2.1E1,6E0,7E0,-7.59943E-2,3E0,1.6E1,1.8E1,7.2E1,9E0,6E0,1.1E1,7.149912E-2,1.7E1,-7.1803145E-2,3.3E1,-7.131921E-2,6.390087E-3,4E0,2.8E1,2.5E1,-7.4860685E-2,-2.1868227E-2,4E0,5.9800383E-2,-2.312622E-2,1.6E1,2.8024366E-2,-4.098629E-3,5.3532597E-2,2.3E1,9E0,1.8E1,6.9752656E-2,3.2E1,6.3E1,7E1,5.3364437E-2,7.708274E-2,5.2E1,-7.86048E-2,7E0,8E0,5E0,2.2E1,2.3E1,5.897546E-2,4.3E1,3.292803E-2,1E1,5.3E1,-1.9659994E-2,2.2E1,1E1,-7.953264E-3,5.3074278E-2,8.355275E-3,-1.6147258E-2,2.5218567E-2,-2.2535823E-2,1.0039312E-2,-8.303591E-2,-5.161221E-2,4.4048317E-2,4.404837E-2,-8.3204545E-3,7.4289064E-3,9.1227907E-4,-7.0923954E-2,1.738048E-3,7.247396E-4,6.0663212E-2,-2.5863757E-2,2.1358354E-2,-3.5272278E-3,6.553396E-2],"split_indices":[3,0,5,2,5,0,2,2,1,3,1,0,3,3,0,2,3,0,5,0,0,0,0,0,0,0,0,5,0,0,0,0,0,2,0,0,0,0,1,1,0,2,2,2,0,0,2,0,1,1,3,3,1,0,2,0,1,2,0,3,1,0,0,0,0,0,0,0,0,0,0,0,0,0,0,0,0,0,0,0,0,0,0],"split_type":[0,0,0,0,0,0,0,0,0,0,0,0,0,0,0,0,0,0,0,0,0,0,0,0,0,0,0,0,0,0,0,0,0,0,0,0,0,0,0,0,0,0,0,0,0,0,0,0,0,0,0,0,0,0,0,0,0,0,0,0,0,0,0,0,0,0,0,0,0,0,0,0,0,0,0,0,0,0,0,0,0,0,0],"sum_hessian":[2.921859E2,9.506871E0,2.8267902E2,1.4571356E2,1.3696547E2,3.1687956E1,1.1402561E2,5.642993E1,8.053553E1,2.2194084E1,9.493871E0,5.6427007E0,1.0838291E2,4.897443E0,5.153249E1,6.374705E1,1.6788479E1,8.205695E0,1.3988389E1,4.540654E0,4.953217E0,5.0840516E0,1.0329886E2,2.743942E0,2.1535006E0,2.7195251E1,2.4337238E1,5.8599106E1,5.147947E0,3.383564E0,1.3404914E1,5.086832E0,3.1188633E0,1.0696902E1,3.2914867E0,2.394668E0,2.5585487E0,7.651584E1,2.6783024E1,7.9361167E0,1.9259134E1,7.9167128E0,1.6420525E1,5.3271843E1,5.3272614E0,5.7206964E0,7.6842175E0,5.6783733E0,5.018529E0,6.3083717E1,1.3432119E1,9.178007E0,1.7605017E1,3.6565561E0,4.2795606E0,3.2963562E0,4.6203566E0,1.353997E1,2.8805544E0,4.7145256E1,6.126587E0,2.366672E0,5.3175454E0,2.1484022E0,2.8701267E0,3.219555E1,3.0888168E1,2.138557E0,1.1293562E1,6.373076E0,2.8049314E0,1.4947838E1,2.6571784E0,2.1529272E0,2.1266334E0,2.4915366E0,2.12882E0,4.2408385E0,9.299131E0,3.6641376E1,1.0503881E1,2.4015915E0,3.7249954E0],"tree_param":{"num_deleted":"0","num_feature":"6","num_nodes":"83","size_leaf_vector":"1"}},{"base_weights":[-2.6480064E-2,-6.7834854E-1,7.121241E-2,-1.164742E0,-1.8293327E-1,-6.779643E-2,9.19129E-2,-3.2152537E-1,-7.795148E-2,-6.4901076E-2,1.9493438E-1,3.5855582E-1,2.624928E-3,1.0918741E-2,-5.5767532E-2,5.157587E-2,-4.0856343E-2,-7.351238E-2,4.8982954E-1,1.21382326E-1,-3.010407E-1,2.6012791E-2,-2.968443E-1,5.940811E-1,-3.7764093E-1,7.185592E-2,9.2429537E-1,-1.1075039E0,4.41719E-4,-6.60774E-2,4.5139942E-1,1.8241036E-1,8.8049465E-1,4.3618167E-3,-3.0027797E-2,-6.116154E-1,1.2002036E-1,1.9929267E-2,5.9952494E-2,-2.1288075E-1,-8.120956E-2,2.7884617E-1,-5.3960973E-1,-1.2943073E-2,5.463154E-2,4.757336E-1,-7.380499E-2,3.8065752E-1,9.7030586E-1,-7.119986E-2,1.3111703E-2,1.1524477E0,4.9777642E-2,2.8749913E-2,-6.0293853E-2,-5.325542E-1,6.020358E-1,-7.457953E-2,-1.470169E-2,-2.1474797E-3,4.435509E-2,-9.927794E-3,4.1828956E-2,5.542272E-2,8.89094E-3,2.8312296E-2,7.296636E-2,-4.041047E-2,4.927968E-3,-3.7614391E-3,-6.1383307E-2,5.2711E-2,1.3610634E-2,-3.592987E-2,2.964056E-2],"categories":[],"categories_nodes":[],"categories_segments":[],"categories_sizes":[],"default_left":[0,0,0,0,0,0,0,0,0,0,0,0,0,0,0,0,0,0,0,0,0,0,0,0,0,0,0,0,0,0,0,0,0,0,0,0,0,0,0,0,0,0,0,0,0,0,0,0,0,0,0,0,0,0,0,0,0,0,0,0,0,0,0,0,0,0,0,0,0,0,0,0,0,0,0],"id":8,"left_children":[1,3,5,7,9,-1,11,13,-1,-1,15,17,19,-1,-1,-1,21,-1,23,25,27,-1,29,31,33,35,37,39,41,-1,43,45,47,-1,-1,49,51,-1,-1,53,-1,55,57,-1,-1,59,-1,61,63,-1,-1,65,67,-1,-1,69,71,-1,73,-1,-1,-1,-1,-1,-1,-1,-1,-1,-1,-1,-1,-1,-1,-1,-1],"loss_changes":[1.8632854E1,8.975027E0,7.649122E0,5.8335953E0,8.712256E0,0E0,5.9985685E0,3.3853993E0,0E0,0E0,3.1715207E0,1.5894661E1,6.880773E0,0E0,0E0,0E0,2.070283E0,0E0,5.62554E0,5.3871984E0,1.3042982E1,0E0,8.107487E0,6.1717033E0,7.7974916E-1,4.3614693E0,6.6081667E-1,6.401657E0,6.171484E0,0E0,3.2009478E0,1.2035195E1,1.040657E0,0E0,0E0,6.577427E0,8.827969E0,0E0,0E0,5.7747655E0,0E0,7.422833E0,6.9552407E0,0E0,0E0,4.423106E0,0E0,1.8640287E0,2.6472054E0,0E0,0E0,5.695944E-1,4.924764E0,0E0,0E0,2.528772E0,2.6716766E0,0E0,4.706557E0,0E0,0E0,0E0,0E0,0E0,0E0,0E0,0E0,0E0,0E0,0E0,0E0,0E0,0E0,0E0,0E0],"parents":[2147483647,0,0,1,1,2,2,3,3,4,4,6,6,7,7,10,10,11,11,12,12,16,16,18,18,19,19,20,20,22,22,23,23,24,24,25,25,26,26,27,27,28,28,30,30,31,31,32,32,35,35,36,36,39,39,41,41,42,42,45,45,47,47,48,48,51,51,52,52,55,55,56,56,58,58],"right_children":[2,4,6,8,10,-1,12,14,-1,-1,16,18,20,-1,-1,-1,22,-1,24,26,28,-1,30,32,34,36,38,40,42,-1,44,46,48,-1,-1,50,52,-1,-1,54,-1,56,58,-1,-1,60,-1,62,64,-1,-1,66,68,-1,-1,70,72,-1,74,-1,-1,-1,-1,-1,-1,-1,-1,-1,-1,-1,-1,-1,-1,-1,-1],"split_conditions":[4E0,1.4E1,6E0,6E1,2E0,-6.779643E-2,7E0,6E0,-7.795148E-2,-6.4901076E-2,1.5E1,3E0,7.9E1,1.0918741E-2,-5.5767532E-2,5.157587E-2,2.5E1,-7.351238E-2,8.6E1,7.8E1,8.2E1,2.6012791E-2,8.3E1,7E1,5E0,2.9E1,1E1,5E0,1.3E1,-6.60774E-2,1E1,4.4E1,4E0,4.3618167E-3,-3.0027797E-2,1.8E1,1.2E1,1.9929267E-2,5.9952494E-2,8E1,-8.120956E-2,5E0,8.6E1,-1.2943073E-2,5.463154E-2,1.3E1,-7.380499E-2,8.1E1,1.8E1,-7.119986E-2,1.3111703E-2,5.6E1,1.7E1,2.8749913E-2,-6.0293853E-2,1.9E1,8.5E1,-7.457953E-2,6.5E1,-2.1474797E-3,4.435509E-2,-9.927794E-3,4.1828956E-2,5.542272E-2,8.89094E-3,2.8312296E-2,7.296636E-2,-4.041047E-2,4.927968E-3,-3.7614391E-3,-6.1383307E-2,5.2711E-2,1.3610634E-2,-3.592987E-2,2.964056E-2],"split_indices":[3,5,2,4,3,0,3,5,0,0,5,5,4,0,0,0,2,0,4,4,4,0,4,4,3,4,1,1,1,0,1,2,1,0,0,3,2,0,0,4,0,1,4,0,0,1,0,4,5,0,0,4,2,0,0,3,4,0,2,0,0,0,0,0,0,0,0,0,0,0,0,0,0,0,0],"split_type":[0,0,0,0,0,0,0,0,0,0,0,0,0,0,0,0,0,0,0,0,0,0,0,0,0,0,0,0,0,0,0,0,0,0,0,0,0,0,0,0,0,0,0,0,0,0,0,0,0,0,0,0,0,0,0,0,0,0,0,0,0,0,0,0,0,0,0,0,0,0,0,0,0,0,0],"sum_hessian":[2.9083066E2,3.713015E1,2.5370052E2,1.8053942E1,1.9076208E1,2.705059E0,2.5099545E2,6.3306923E0,1.1723249E1,4.2118645E0,1.4864345E1,6.22076E1,1.8878786E2,4.1994505E0,2.1312418E0,2.5263097E0,1.2338035E1,3.4831533E0,5.872445E1,1.3614471E2,5.264313E1,3.541941E0,8.796094E0,5.2705517E1,6.0189304E0,1.2926096E2,6.883762E0,1.3597199E1,3.9045933E1,3.3888862E0,5.4072075E0,2.229587E1,3.0409647E1,2.148016E0,3.8709145E0,7.7392764E0,1.2152168E2,3.2039952E0,3.6797667E0,5.4949417E0,8.102258E0,2.6083284E1,1.2962647E1,2.848437E0,2.5587704E0,1.955121E1,2.7446609E0,5.4296694E0,2.4979977E1,3.6844385E0,4.054838E0,6.759781E0,1.147619E2,3.2986336E0,2.1963081E0,7.245333E0,1.8837952E1,3.9525762E0,9.010072E0,9.043762E0,1.0507447E1,2.640109E0,2.78956E0,2.0932299E1,4.0476785E0,3.3004427E0,3.4593382E0,5.3363714E0,1.0942553E2,5.038589E0,2.2067442E0,7.018853E0,1.18190975E1,4.089229E0,4.9208426E0],"tree_param":{"num_deleted":"0","num_feature":"6","num_nodes":"75","size_leaf_vector":"1"}},{"base_weights":[5.6163594E-2,-5.3163365E-2,5.678586E-1,-6.99761E-2,3.7019344E-3,1.1190572E0,3.1584588E-1,2.6824066E-2,-6.8071894E-2,-1.664928E-3,1.323444E0,-1.9952428E-1,9.41953E-1,-1.7654197E-2,5.551712E-1,7.2651096E-2,3.2377746E-2,4.1159302E-1,-1.1486539E0,2.0712417E-1,1.3409829E0,1.4578068E-2,-9.7491264E-1,9.29209E-1,-3.303683E-2,4.7821175E-2,7.280252E-2,5.1331227E-3,-7.911687E-2,6.3037984E-2,-2.73751E-2,7.7951334E-2,2.8935978E-2,6.993414E-2,-4.441742E-1,-7.375733E-2,6.30859E-3,-9.928398E-3,5.980221E-2,-2.771077E-2,5.5351716E-1,2.4260621E-1,-7.265518E-2,1.786127E-1,-9.8543507E-1,2.269007E-3,4.1182365E-2,4.925662E-3,5.7408877E-2,4.594995E-2,-7.619699E-3,-1.2195733E-2,6.486147E-2,-1.7662792E-2,-7.599651E-2],"categories":[],"categories_nodes":[],"categories_segments":[],"categories_sizes":[],"default_left":[0,0,0,0,0,0,0,0,0,0,0,0,0,0,0,0,0,0,0,0,0,0,0,0,0,0,0,0,0,0,0,0,0,0,0,0,0,0,0,0,0,0,0,0,0,0,0,0,0,0,0,0,0,0,0],"id":9,"left_children":[1,3,5,-1,7,9,11,13,-1,-1,15,17,19,21,23,-1,-1,25,27,29,31,33,35,37,-1,-1,39,-1,-1,-1,-1,-1,-1,41,43,-1,-1,-1,-1,-1,45,47,49,51,53,-1,-1,-1,-1,-1,-1,-1,-1,-1,-1],"loss_changes":[1.6602146E1,1.8762539E1,6.9025745E0,0E0,7.487974E0,3.8115673E0,1.2204333E1,5.488026E0,0E0,0E0,2.5113678E-1,1.279922E1,4.703539E0,6.6783347E0,8.860149E0,0E0,0E0,2.4524908E0,4.8226976E0,6.384167E0,8.972931E-1,5.3622866E0,4.0694523E0,4.5353003E0,0E0,0E0,3.172447E0,0E0,0E0,0E0,0E0,0E0,0E0,4.651183E0,7.841605E0,0E0,0E0,0E0,0E0,0E0,7.699822E-1,1.1023712E1,8.351445E0,5.714254E0,3.6259708E0,0E0,0E0,0E0,0E0,0E0,0E0,0E0,0E0,0E0,0E0],"parents":[2147483647,0,0,1,1,2,2,4,4,5,5,6,6,7,7,10,10,11,11,12,12,13,13,14,14,17,17,18,18,19,19,20,20,21,21,22,22,23,23,26,26,33,33,34,34,40,40,41,41,42,42,43,43,44,44],"right_children":[2,4,6,-1,8,10,12,14,-1,-1,16,18,20,22,24,-1,-1,26,28,30,32,34,36,38,-1,-1,40,-1,-1,-1,-1,-1,-1,42,44,-1,-1,-1,-1,-1,46,48,50,52,54,-1,-1,-1,-1,-1,-1,-1,-1,-1,-1],"split_conditions":[2.1E1,2E0,2.6E1,-6.99761E-2,6.2E1,1.1E1,5.7E1,4.9E1,-6.8071894E-2,-1.664928E-3,5.9E1,1.4E1,1.3E1,3.9E1,1.5E1,7.2651096E-2,3.2377746E-2,5E0,5.7E1,6E1,2.4E1,1.6E1,7E1,6.1E1,-3.303683E-2,4.7821175E-2,1E1,5.1331227E-3,-7.911687E-2,6.3037984E-2,-2.73751E-2,7.7951334E-2,2.8935978E-2,1.4E1,2E0,-7.375733E-2,6.30859E-3,-9.928398E-3,5.980221E-2,-2.771077E-2,6.3E1,1.1E1,2.1E1,5.1E1,2.7E1,2.269007E-3,4.1182365E-2,4.925662E-3,5.7408877E-2,4.594995E-2,-7.619699E-3,-1.2195733E-2,6.486147E-2,-1.7662792E-2,-7.599651E-2],"split_indices":[1,3,2,0,0,2,2,0,0,0,4,3,3,0,3,0,0,3,4,2,3,1,2,2,0,0,3,0,0,0,0,0,0,0,0,0,0,0,0,0,4,0,2,2,2,0,0,0,0,0,0,0,0,0,0],"split_type":[0,0,0,0,0,0,0,0,0,0,0,0,0,0,0,0,0,0,0,0,0,0,0,0,0,0,0,0,0,0,0,0,0,0,0,0,0,0,0,0,0,0,0,0,0,0,0,0,0,0,0,0,0,0,0],"sum_hessian":[2.9523438E2,2.4399858E2,5.1235783E1,8.931145E0,2.3506744E2,1.4996082E1,3.62397E1,2.321163E2,2.9511323E0,2.385191E0,1.2610891E1,2.0251404E1,1.5988296E1,2.1498466E2,1.7131638E1,9.617316E0,2.9935744E0,1.2663857E1,7.5875473E0,6.1612277E0,9.827067E0,2.0893433E2,6.0503473E0,1.3281707E1,3.849931E0,4.15649E0,8.507368E0,2.149327E0,5.43822E0,2.291311E0,3.8699167E0,6.828523E0,2.9985447E0,1.8719383E2,2.1740484E1,3.92669E0,2.123657E0,2.5901785E0,1.0691528E1,3.625528E0,4.8818398E0,8.4348495E1,1.0284534E2,1.0420467E1,1.1320018E1,2.0998473E0,2.7819924E0,7.3726105E1,1.0622387E1,6.8709645E0,9.597437E1,8.131109E0,2.2893577E0,5.9470286E0,5.372989E0],"tree_param":{"num_deleted":"0","num_feature":"6","num_nodes":"55","size_leaf_vector":"1"}},{"base_weights":[4.486855E-2,-4.8792366E-2,4.5102876E-1,-1.4555541E-2,-7.204081E-2,2.7731884E-1,4.501097E-2,-3.027574E-1,1.905025E-1,3.9829978E-1,-6.506244E-2,-1.5236754E-2,-6.4331836E-1,7.439121E-1,9.8497175E-2,5.712525E-1,-4.583599E-1,-7.233033E-1,2.0943889E-1,-1.0973623E0,-2.3424995E-1,9.5862424E-1,1.8476581E-3,-1.4050679E-1,3.4585553E-1,6.581006E-1,-1.2922076E-2,-3.3485368E-2,1.6223608E-3,7.6604015E-3,-1.1428154E0,6.726196E-1,-3.8795605E-1,-1.3933483E0,-4.2134453E-2,7.609387E-1,-5.6365037E-1,6.221263E-3,1.0840621E0,6.244904E-3,-5.641975E-3,9.135787E-2,-7.509414E-1,8.231814E-1,8.6161144E-2,3.9258823E-1,1.0342556E0,-7.656389E-2,-9.648677E-4,6.274047E-2,3.3587235E-1,8.144685E-2,-7.156666E-2,-1.7320504E-2,-8.212738E-2,-7.6997206E-3,4.970811E-3,7.3413656E-4,5.5209756E-2,-7.264776E-2,-4.085551E-3,-5.03167E-4,6.471748E-2,-6.705499E-2,5.2488435E-2,1.8138427E-2,-1.0590475E0,6.739017E-2,5.7287145E-2,-3.5326445E-1,8.8130397E-1,6.9192225E-1,-2.9761905E-2,4.258283E-1,7.113155E-2,-8.152087E-3,5.9417367E-2,-6.414024E-2,2.7152738E-2,3.0025572E-2,-6.657753E-2,1.3109334E-2,-2.650935E-2,-8.0926694E-2,7.7347434E-3,-3.4626145E-2,6.124298E-2,3.0187849E-2,-3.0097617E-2,5.5160433E-2,2.1251658E-2,1.9429436E-2,5.3481486E-2,-1.3514618E-2,5.1141746E-2],"categories":[],"categories_nodes":[],"categories_segments":[],"categories_sizes":[],"default_left":[0,0,0,0,0,0,0,0,0,0,0,0,0,0,0,0,0,0,0,0,0,0,0,0,0,0,0,0,0,0,0,0,0,0,0,0,0,0,0,0,0,0,0,0,0,0,0,0,0,0,0,0,0,0,0,0,0,0,0,0,0,0,0,0,0,0,0,0,0,0,0,0,0,0,0,0,0,0,0,0,0,0,0,0,0,0,0,0,0,0,0,0,0,0,0],"id":10,"left_children":[1,3,5,7,-1,9,-1,11,13,15,-1,17,19,21,23,25,27,29,31,33,35,37,39,41,43,45,-1,-1,-1,-1,47,49,51,53,55,57,59,-1,61,-1,-1,63,65,67,69,71,73,-1,-1,-1,75,77,-1,-1,-1,-1,-1,-1,-1,-1,79,-1,-1,81,-1,-1,83,85,-1,87,89,91,-1,93,-1,-1,-1,-1,-1,-1,-1,-1,-1,-1,-1,-1,-1,-1,-1,-1,-1,-1,-1,-1,-1],"loss_changes":[1.139796E1,1.1603272E1,4.1304846E0,1.4185817E1,0E0,8.525076E0,0E0,9.759437E0,7.0699835E0,6.144851E0,0E0,8.920517E0,8.221321E0,3.1603756E0,7.2284784E0,2.5827055E0,7.711544E-1,5.139879E0,1.2053847E1,6.613703E0,8.71758E0,1.4756069E0,9.108622E-2,8.91156E0,7.362785E0,2.6492376E0,0E0,0E0,0E0,0E0,4.00745E0,4.3567486E0,9.543192E0,3.775528E0,1.0573382E-1,1.7034538E0,9.73318E0,0E0,3.0614433E0,0E0,0E0,7.0802097E0,6.3229322E0,5.0456896E0,1.4272032E1,6.191102E0,2.2407532E0,0E0,0E0,0E0,7.3417463E0,9.652391E0,0E0,0E0,0E0,0E0,0E0,0E0,0E0,0E0,1.1245607E1,0E0,0E0,6.3239264E0,0E0,0E0,9.629556E0,7.3115363E0,0E0,6.6580033E0,9.9998283E-1,1.3558712E0,0E0,2.8201725E0,0E0,0E0,0E0,0E0,0E0,0E0,0E0,0E0,0E0,0E0,0E0,0E0,0E0,0E0,0E0,0E0,0E0,0E0,0E0,0E0,0E0],"parents":[2147483647,0,0,1,1,2,2,3,3,5,5,7,7,8,8,9,9,11,11,12,12,13,13,14,14,15,15,16,16,17,17,18,18,19,19,20,20,21,21,22,22,23,23,24,24,25,25,30,30,31,31,32,32,33,33,34,34,35,35,36,36,38,38,41,41,42,42,43,43,44,44,45,45,46,46,50,50,51,51,60,60,63,63,66,66,67,67,69,69,70,70,71,71,73,73],"right_children":[2,4,6,8,-1,10,-1,12,14,16,-1,18,20,22,24,26,28,30,32,34,36,38,40,42,44,46,-1,-1,-1,-1,48,50,52,54,56,58,60,-1,62,-1,-1,64,66,68,70,72,74,-1,-1,-1,76,78,-1,-1,-1,-1,-1,-1,-1,-1,80,-1,-1,82,-1,-1,84,86,-1,88,90,92,-1,94,-1,-1,-1,-1,-1,-1,-1,-1,-1,-1,-1,-1,-1,-1,-1,-1,-1,-1,-1,-1,-1],"split_conditions":[2E1,7.8E1,2.1E1,3.6E1,-7.204081E-2,1.8E1,4.501097E-2,5.8E1,6E0,7.9E1,-6.506244E-2,1.8E1,1.2E1,1.6E1,2.8E1,4.2E1,4E1,1.9E1,8E0,8.3E1,2.1E1,4.1E1,4.5E1,2E1,4.8E1,4E1,-1.2922076E-2,-3.3485368E-2,1.6223608E-3,7.6604015E-3,5.4E1,2.1E1,2.8E1,8E0,2.3E1,6.9E1,1.3E1,6.221263E-3,4E0,6.244904E-3,-5.641975E-3,1.9E1,5.2E1,6.2E1,1.3E1,3.1E1,1.3E1,-7.656389E-2,-9.648677E-4,6.274047E-2,5.5E1,9E0,-7.156666E-2,-1.7320504E-2,-8.212738E-2,-7.6997206E-3,4.970811E-3,7.3413656E-4,5.5209756E-2,-7.264776E-2,1.9E1,-5.03167E-4,6.471748E-2,7.2E1,5.2488435E-2,1.8138427E-2,8.2E1,2E1,5.7287145E-2,2E0,1.6E1,2.2E1,-2.9761905E-2,5.4E1,7.113155E-2,-8.152087E-3,5.9417367E-2,-6.414024E-2,2.7152738E-2,3.0025572E-2,-6.657753E-2,1.3109334E-2,-2.650935E-2,-8.0926694E-2,7.7347434E-3,-3.4626145E-2,6.124298E-2,3.0187849E-2,-3.0097617E-2,5.5160433E-2,2.1251658E-2,1.9429436E-2,5.3481486E-2,-1.3514618E-2,5.1141746E-2],"split_indices":[1,2,5,2,0,5,0,4,0,4,0,2,0,1,0,0,0,4,1,4,2,2,2,0,2,2,0,0,0,0,4,2,2,2,2,4,5,0,5,0,0,0,4,4,1,2,5,0,0,0,4,5,0,0,0,0,0,0,0,0,5,0,0,4,0,0,4,5,0,1,1,1,0,2,0,0,0,0,0,0,0,0,0,0,0,0,0,0,0,0,0,0,0,0,0],"split_type":[0,0,0,0,0,0,0,0,0,0,0,0,0,0,0,0,0,0,0,0,0,0,0,0,0,0,0,0,0,0,0,0,0,0,0,0,0,0,0,0,0,0,0,0,0,0,0,0,0,0,0,0,0,0,0,0,0,0,0,0,0,0,0,0,0,0,0,0,0,0,0,0,0,0,0,0,0,0,0,0,0,0,0,0,0,0,0,0,0,0,0,0,0,0,0],"sum_hessian":[2.980419E2,2.4290715E2,5.5134743E1,2.3806245E2,4.84469E0,4.0925503E1,1.4209239E1,9.8769264E1,1.3929318E2,3.8706715E1,2.2187881E0,5.4121555E1,4.4647713E1,1.8846493E1,1.2044669E2,3.2482018E1,6.2246976E0,1.2502026E1,4.161953E1,2.0363138E1,2.4284575E1,1.4390772E1,4.4557214E0,6.147752E1,5.8969177E1,2.9591362E1,2.8906543E0,4.0962853E0,2.1284122E0,4.25228E0,8.249745E0,2.337228E1,1.8247248E1,1.5652318E1,4.710821E0,5.713327E0,1.8571247E1,2.141446E0,1.2249326E1,2.1065373E0,2.349184E0,4.51705E1,1.6307016E1,2.0013666E1,3.895551E1,1.8544939E1,1.1046423E1,5.860512E0,2.389234E0,7.565795E0,1.5806486E1,1.322115E1,5.026098E0,3.4688854E0,1.2183433E1,2.5822759E0,2.1285453E0,2.1285443E0,3.5847828E0,6.5557494E0,1.2015497E1,2.1282406E0,1.0121085E1,3.956153E1,5.608972E0,3.495268E0,1.28117485E1,6.3481917E0,1.3665475E1,2.5447819E1,1.3507691E1,1.4462132E1,4.0828066E0,5.1207356E0,5.9256873E0,1.0481117E1,5.325369E0,2.8927693E0,1.0328381E1,8.631765E0,3.3837318E0,2.3376795E1,1.6184736E1,8.541125E0,4.2706227E0,4.074713E0,2.273478E0,4.954341E0,2.0493477E1,8.1339245E0,5.3737674E0,9.145927E0,5.3162055E0,2.616778E0,2.5039575E0],"tree_param":{"num_deleted":"0","num_feature":"6","num_nodes":"95","size_leaf_vector":"1"}},{"base_weights":[3.0649042E-2,-6.5338314E-1,1.0138504E-1,-9.557241E-1,5.3411824E-1,1.3455859E-1,-1.0411091E0,-2.392629E-1,-7.260678E-2,-7.025243E-3,5.3197272E-2,6.437571E-2,6.2484807E-1,-1.4705295E-2,-6.9006704E-2,4.8076254E-1,-6.0206987E-2,2.154895E-1,-1.7053977E-1,-7.0217216E-1,8.631654E-1,4.5525413E-2,-3.9954283E-3,3.0251512E-1,-6.6379285E-1,-3.931993E-1,1.4189245E-1,6.2932293E-3,-6.4417504E-2,1.0667675E0,9.7930126E-2,3.462406E-1,-3.5542555E-2,-6.924883E-2,-2.971822E-1,7.368745E-2,-1.0719271E0,4.1929692E-1,-7.015548E-1,5.9176475E-2,5.583178E-1,-2.3853226E-2,3.5472825E-2,-8.0920264E-2,4.545257E-1,1.449902E-1,-6.111583E-2,5.885528E-1,-2.5880194E-1,1.0477387E-2,-1.4131935E0,1.5692721E-1,9.081659E-1,-9.4031006E-1,4.657209E-3,-7.43938E-3,5.9106894E-2,-5.0459404E-2,1.2322089E-2,2.9431043E-2,9.197151E-3,1.6757295E-2,-7.3086433E-3,5.2645385E-2,5.9857457E-3,-5.9704985E-2,3.1310108E-2,-6.594469E-4,-8.2082815E-2,4.2460512E-2,-9.488453E-3,5.95972E-2,6.7125424E-4,-3.4605394E-4,-6.877052E-2],"categories":[],"categories_nodes":[],"categories_segments":[],"categories_sizes":[],"default_left":[0,0,0,0,0,0,0,0,0,0,0,0,0,0,0,0,0,0,0,0,0,0,0,0,0,0,0,0,0,0,0,0,0,0,0,0,0,0,0,0,0,0,0,0,0,0,0,0,0,0,0,0,0,0,0,0,0,0,0,0,0,0,0,0,0,0,0,0,0,0,0,0,0,0,0],"id":11,"left_children":[1,3,5,7,9,11,13,15,-1,-1,-1,17,19,-1,-1,21,-1,23,25,27,29,-1,-1,31,33,35,37,-1,-1,39,41,43,-1,-1,45,47,49,51,53,-1,55,-1,-1,57,59,61,-1,63,65,-1,67,69,71,73,-1,-1,-1,-1,-1,-1,-1,-1,-1,-1,-1,-1,-1,-1,-1,-1,-1,-1,-1,-1,-1],"loss_changes":[1.3888487E1,1.0170824E1,9.9851885E0,7.4077053E0,2.3304856E0,8.676396E0,1.4793262E0,7.610837E0,0E0,0E0,0E0,7.9427714E0,1.0601465E1,0E0,0E0,1.6415522E0,0E0,1.0605335E1,6.159519E0,2.7653744E0,4.1400013E0,0E0,0E0,5.7588425E0,2.9088283E0,1.639729E1,9.008541E0,0E0,0E0,6.106491E-1,2.7386823E0,5.584571E0,0E0,0E0,4.103993E0,5.5352097E0,9.502182E0,3.5326195E0,1.9075484E0,0E0,2.775167E0,0E0,0E0,7.8774595E0,3.3689632E0,4.580875E-1,0E0,2.6265893E0,1.7137627E1,0E0,5.3367577E0,4.9265237E0,2.4718084E0,3.022594E0,0E0,0E0,0E0,0E0,0E0,0E0,0E0,0E0,0E0,0E0,0E0,0E0,0E0,0E0,0E0,0E0,0E0,0E0,0E0,0E0,0E0],"parents":[2147483647,0,0,1,1,2,2,3,3,4,4,5,5,6,6,7,7,11,11,12,12,15,15,17,17,18,18,19,19,20,20,23,23,24,24,25,25,26,26,29,29,30,30,31,31,34,34,35,35,36,36,37,37,38,38,40,40,43,43,44,44,45,45,47,47,48,48,50,50,51,51,52,52,53,53],"right_children":[2,4,6,8,10,12,14,16,-1,-1,-1,18,20,-1,-1,22,-1,24,26,28,30,-1,-1,32,34,36,38,-1,-1,40,42,44,-1,-1,46,48,50,52,54,-1,56,-1,-1,58,60,62,-1,64,66,-1,68,70,72,74,-1,-1,-1,-1,-1,-1,-1,-1,-1,-1,-1,-1,-1,-1,-1,-1,-1,-1,-1,-1,-1],"split_conditions":[3E0,8.4E1,2.5E1,3E1,9E0,2.2E1,6.4E1,7E0,-7.260678E-2,-7.025243E-3,5.3197272E-2,1.3E1,5.8E1,-1.4705295E-2,-6.9006704E-2,6E1,-6.0206987E-2,8.6E1,1.6E1,6E0,5.8E1,4.5525413E-2,-3.9954283E-3,7.3E1,4.6E1,8E0,1.9E1,6.2932293E-3,-6.4417504E-2,1.4E1,1.8E1,6E0,-3.5542555E-2,-6.924883E-2,1.4E1,8E0,2E0,6.4E1,2E1,5.9176475E-2,5.3E1,-2.3853226E-2,3.5472825E-2,6E0,1.6E1,6E0,-6.111583E-2,4.9E1,5.1E1,1.0477387E-2,2.7E1,5E1,6.8E1,5.8E1,4.657209E-3,-7.43938E-3,5.9106894E-2,-5.0459404E-2,1.2322089E-2,2.9431043E-2,9.197151E-3,1.6757295E-2,-7.3086433E-3,5.2645385E-2,5.9857457E-3,-5.9704985E-2,3.1310108E-2,-6.594469E-4,-8.2082815E-2,4.2460512E-2,-9.488453E-3,5.95972E-2,6.7125424E-4,-3.4605394E-4,-6.877052E-2],"split_indices":[3,4,3,2,1,3,4,5,0,0,0,3,4,0,0,4,0,4,5,5,2,0,0,2,2,5,3,0,0,1,1,5,0,0,1,1,1,2,1,0,2,0,0,3,5,1,0,4,2,0,4,4,2,4,0,0,0,0,0,0,0,0,0,0,0,0,0,0,0,0,0,0,0,0,0],"split_type":[0,0,0,0,0,0,0,0,0,0,0,0,0,0,0,0,0,0,0,0,0,0,0,0,0,0,0,0,0,0,0,0,0,0,0,0,0,0,0,0,0,0,0,0,0,0,0,0,0,0,0,0,0,0,0,0,0,0,0,0,0,0,0,0,0,0,0,0,0,0,0,0,0,0,0],"sum_hessian":[2.846679E2,2.5906794E1,2.587611E2,2.0804974E1,5.101821E0,2.5231705E2,6.4440727E0,9.121733E0,1.168324E1,2.567483E0,2.5343378E0,2.217113E2,3.060574E1,2.5946221E0,3.8494508E0,5.51098E0,3.6107528E0,1.3497122E2,8.674008E1,4.36329E0,2.6242449E1,2.7665224E0,2.744458E0,1.23412605E2,1.15586195E1,5.049532E1,3.6244762E1,2.134031E0,2.229259E0,2.0416342E1,5.826107E0,1.18938866E2,4.4737396E0,2.9593341E0,8.599286E0,3.044446E1,2.0050858E1,2.7652805E1,8.591956E0,1.5523707E1,4.8926344E0,3.116068E0,2.7100391E0,2.4104525E1,9.483434E1,6.3889384E0,2.2103472E0,1.1643762E1,1.88007E1,4.297914E0,1.5752944E1,1.885472E1,8.798085E0,6.4660892E0,2.125867E0,2.650153E0,2.2424817E0,5.7414055E0,1.836312E1,6.262388E1,3.221046E1,3.7734663E0,2.615472E0,5.223965E0,6.419796E0,8.970819E0,9.82988E0,2.3584228E0,1.3394521E1,5.807957E0,1.3046762E1,6.427392E0,2.3706934E0,2.3788412E0,4.087248E0],"tree_param":{"num_deleted":"0","num_feature":"6","num_nodes":"75","size_leaf_vector":"1"}},{"base_weights":[3.831788E-2,-6.826209E-1,1.02325305E-1,-1.0209022E0,3.685197E-1,1.2054322E-1,-6.255409E-2,-9.953392E-2,-7.036094E-2,-1.5032428E-2,5.146541E-2,-3.9786503E-1,1.6680439E-1,1.3572553E-2,-1.6533876E-2,-1.1554427E0,2.2121276E-1,9.494306E-2,5.0082004E-1,-7.315968E-2,-1.4110969E-2,6.924512E-1,-2.852292E-1,2.9747087E-1,-2.3626989E-1,7.6773185E-1,2.45773E-1,1.4798318E-2,5.001731E-2,-6.0617447E-2,2.376998E-2,-6.596199E-2,3.402257E-1,-5.407647E-1,1.0509967E-1,-1.7767575E-2,9.6711886E-1,4.905272E-1,-6.1581004E-2,5.0307024E-1,-9.148614E-2,-7.766232E-2,-2.4907483E-1,-1.8744507E-1,8.198314E-1,3.3369866E-1,6.0858108E-2,-1.355153E-2,6.150565E-1,-4.8383814E-3,2.99188E-2,-1.3292298E-2,5.554342E-2,1.0805465E-2,-4.729811E-2,8.3852647E-4,-6.6505484E-2,-2.509387E-3,5.3176414E-2,3.953625E-2,-1.15436325E-2,-6.6684694E-3,3.6746427E-2],"categories":[],"categories_nodes":[],"categories_segments":[],"categories_sizes":[],"default_left":[0,0,0,0,0,0,0,0,0,0,0,0,0,0,0,0,0,0,0,0,0,0,0,0,0,0,0,0,0,0,0,0,0,0,0,0,0,0,0,0,0,0,0,0,0,0,0,0,0,0,0,0,0,0,0,0,0,0,0,0,0,0,0],"id":12,"left_children":[1,3,5,7,9,11,-1,13,-1,-1,-1,15,17,-1,-1,19,21,23,25,-1,-1,27,29,31,33,35,37,-1,-1,-1,-1,-1,39,41,43,-1,45,47,-1,49,51,-1,53,55,57,59,-1,-1,61,-1,-1,-1,-1,-1,-1,-1,-1,-1,-1,-1,-1,-1,-1],"loss_changes":[1.3516587E1,8.871809E0,6.771187E0,6.3880005E0,3.2065086E0,6.442091E0,0E0,6.4664817E-1,0E0,0E0,0E0,1.0609084E1,5.8277884E0,0E0,0E0,2.2980738E0,3.2970686E0,1.3665539E1,2.7456446E0,0E0,0E0,5.608268E-1,5.4903173E0,9.172839E0,8.108587E0,4.9546633E0,9.106382E0,0E0,0E0,0E0,0E0,0E0,8.746205E0,1.1752616E1,7.9646287E0,0E0,2.4060059E0,2.147488E0,0E0,5.203764E0,7.578621E0,0E0,1.0935556E1,6.3976755E0,2.393167E0,1.8346856E0,0E0,0E0,1.7359457E0,0E0,0E0,0E0,0E0,0E0,0E0,0E0,0E0,0E0,0E0,0E0,0E0,0E0,0E0],"parents":[2147483647,0,0,1,1,2,2,3,3,4,4,5,5,7,7,11,11,12,12,15,15,16,16,17,17,18,18,21,21,22,22,23,23,24,24,25,25,26,26,32,32,33,33,34,34,36,36,37,37,39,39,40,40,42,42,43,43,44,44,45,45,48,48],"right_children":[2,4,6,8,10,12,-1,14,-1,-1,-1,16,18,-1,-1,20,22,24,26,-1,-1,28,30,32,34,36,38,-1,-1,-1,-1,-1,40,42,44,-1,46,48,-1,50,52,-1,54,56,58,60,-1,-1,62,-1,-1,-1,-1,-1,-1,-1,-1,-1,-1,-1,-1,-1,-1],"split_conditions":[3E0,8.4E1,6.2E1,4E0,4.4E1,3.6E1,-6.255409E-2,1.5E1,-7.036094E-2,-1.5032428E-2,5.146541E-2,7E0,2.2E1,1.3572553E-2,-1.6533876E-2,1.8E1,7E0,1.3E1,6.4E1,-7.315968E-2,-1.4110969E-2,1.4E1,1.6E1,2E0,1.6E1,4E0,2.5E1,1.4798318E-2,5.001731E-2,-6.0617447E-2,2.376998E-2,-6.596199E-2,1.9E1,7E0,2E1,-1.7767575E-2,7E0,7.1E1,-6.1581004E-2,2E0,2.5E1,-7.766232E-2,7E0,1.5E1,2.1E1,5E0,6.0858108E-2,-1.355153E-2,7E0,-4.8383814E-3,2.99188E-2,-1.3292298E-2,5.554342E-2,1.0805465E-2,-4.729811E-2,8.3852647E-4,-6.6505484E-2,-2.509387E-3,5.3176414E-2,3.953625E-2,-1.15436325E-2,-6.6684694E-3,3.6746427E-2],"split_indices":[3,4,0,0,0,4,0,1,0,0,0,5,3,0,0,1,3,3,4,0,0,1,3,5,5,0,3,0,0,0,0,0,5,0,1,0,1,4,0,1,5,0,5,1,5,5,0,0,5,0,0,0,0,0,0,0,0,0,0,0,0,0,0],"split_type":[0,0,0,0,0,0,0,0,0,0,0,0,0,0,0,0,0,0,0,0,0,0,0,0,0,0,0,0,0,0,0,0,0,0,0,0,0,0,0,0,0,0,0,0,0,0,0,0,0,0,0,0,0,0,0,0,0,0,0,0,0,0,0],"sum_hessian":[2.903991E2,2.2892122E1,2.67507E2,1.7340363E1,5.55176E0,2.6485278E2,2.6541915E0,5.4942303E0,1.1846132E1,3.0291805E0,2.5225797E0,2.1075684E1,2.437771E2,2.0421696E0,3.4520607E0,9.088056E0,1.1987627E1,2.0167276E2,4.2104347E1,6.220231E0,2.8678246E0,6.019378E0,5.968249E0,1.2521129E2,7.6461464E1,1.95914E1,2.2512947E1,3.4884558E0,2.5309224E0,2.4221034E0,3.5461454E0,2.456756E0,1.2275453E2,4.0104736E1,3.6356728E1,2.835834E0,1.6755568E1,1.9886417E1,2.626531E0,8.901297E1,3.374156E1,8.002467E0,3.2102272E1,2.6321068E1,1.0035659E1,5.4030066E0,1.135256E1,2.6294703E0,1.7256947E1,1.2201772E1,7.6811195E1,3.014847E1,3.5930943E0,1.9665266E1,1.2437005E1,2.3166162E1,3.1549048E0,2.369696E0,7.665963E0,2.7645216E0,2.6384847E0,2.3668466E0,1.48901E1],"tree_param":{"num_deleted":"0","num_feature":"6","num_nodes":"63","size_leaf_vector":"1"}},{"base_weights":[-1.3829213E-2,-2.4596538E-1,1.4450409E-1,-3.548808E-2,-6.4563215E-1,-2.2313344E-1,2.7839035E-1,9.318765E-2,-1.0729069E0,-8.7427944E-1,2.1178228E-1,4.9989024E-1,-4.4579694E-1,4.6645265E-2,4.606272E-1,-7.761055E-2,7.606891E-1,1.3178485E-3,-7.323461E-2,-5.308125E-1,-7.514044E-2,8.131765E-1,-5.945612E-2,9.225232E-1,-2.3338929E-2,1.0239248E-1,-8.6751956E-1,-6.4234674E-2,1.3721325E-1,8.505925E-1,2.676709E-1,-6.954733E-2,5.8843933E-2,3.3549678E-1,5.56389E-2,-1.575034E-1,-6.920879E-2,6.24096E-2,1.7026313E-2,2.1855587E-2,5.7672888E-2,-5.325167E-1,6.556157E-1,-8.085228E-2,-2.1897408E-1,2.9553735E-1,-5.068749E-1,5.999517E-1,6.908503E-2,-8.01129E-1,3.9777806E-1,-1.5642211E-1,5.671734E-1,-1.4321906E-2,3.7368443E-2,-6.014103E-1,2.661893E-1,2.9689068E-2,-7.070457E-2,-4.4874833E-3,4.625124E-2,6.8725324E-1,-8.807137E-1,8.920727E-1,9.382284E-2,-7.371401E-2,4.959872E-1,-1.2429754E-1,8.81696E-1,-3.3032408E-3,-6.6525094E-2,9.472536E-1,-2.4321815E-2,1.5998289E-1,-8.620767E-1,-1.541536E-1,9.39272E-1,1.555764E-2,-6.5908425E-2,-1.51014E-1,4.527354E-2,5.9041757E-2,4.7795937E-4,-6.423559E-2,-8.7972535E-3,1.2275074E-2,6.0134944E-2,-4.0280885E-1,3.0597183E-1,4.8272884E-3,3.416392E-2,-6.535385E-2,5.853764E-2,6.3988276E-2,5.9738326E-1,5.9607685E-2,4.3623915E-1,-6.91172E-2,2.6338705E-1,4.632962E-2,-1.3160512E-2,-5.555999E-2,9.233641E-3,-6.1245114E-2,3.6126416E-2,5.8098596E-2,1.9452846E-2,-3.7123119E-3,5.309432E-3,-6.0938776E-2,4.472333E-2,3.0280996E-2,-4.7245044E-2,3.9613977E-2,-2.1839026E-2,5.32776E-2,2.0211197E-3,5.123461E-2,-2.1607798E-2,-3.212784E-2,2.665973E-2],"categories":[],"categories_nodes":[],"categories_segments":[],"categories_sizes":[],"default_left":[0,0,0,0,0,0,0,0,0,0,0,0,0,0,0,0,0,0,0,0,0,0,0,0,0,0,0,0,0,0,0,0,0,0,0,0,0,0,0,0,0,0,0,0,0,0,0,0,0,0,0,0,0,0,0,0,0,0,0,0,0,0,0,0,0,0,0,0,0,0,0,0,0,0,0,0,0,0,0,0,0,0,0,0,0,0,0,0,0,0,0,0,0,0,0,0,0,0,0,0,0,0,0,0,0,0,0,0,0,0,0,0,0,0,0,0,0,0,0,0,0],"id":13,"left_children":[1,3,5,7,9,11,13,15,17,19,21,23,25,27,29,31,33,-1,-1,35,-1,37,-1,39,-1,41,43,-1,45,47,49,-1,51,53,-1,55,-1,-1,-1,-1,-1,57,59,-1,61,63,65,67,-1,69,71,73,75,-1,-1,77,79,-1,-1,-1,-1,81,83,85,87,-1,89,91,93,-1,-1,95,97,99,101,103,105,107,-1,109,-1,-1,-1,-1,-1,-1,-1,111,113,-1,-1,-1,-1,-1,115,-1,117,-1,119,-1,-1,-1,-1,-1,-1,-1,-1,-1,-1,-1,-1,-1,-1,-1,-1,-1,-1,-1,-1,-1,-1],"loss_changes":[1.0506219E1,9.725576E0,8.429384E0,1.0374525E1,8.011002E0,7.6181145E0,5.2599325E0,7.9706373E0,3.7308626E0,6.047714E0,8.7255125E0,5.0419054E0,8.330258E0,6.948207E0,5.0315037E0,1.0146981E1,1.7571821E0,0E0,0E0,6.806635E0,0E0,1.0218234E0,0E0,4.1383505E-1,0E0,6.107713E0,9.491464E0,0E0,5.604332E0,2.189682E0,7.0235815E0,0E0,5.7610364E0,2.2321076E0,0E0,3.2574804E0,0E0,0E0,0E0,0E0,0E0,8.967253E0,1.9322901E0,0E0,7.81059E0,5.158692E0,1.1327707E1,3.6138992E0,0E0,2.0773003E0,1.014744E1,8.443564E0,4.34195E0,0E0,0E0,3.7126632E0,2.568943E0,0E0,0E0,0E0,0E0,1.8727763E0,1.875978E0,1.89223E0,3.6712644E0,0E0,3.9121556E-1,1.0240078E1,6.4876175E-1,0E0,0E0,1.8564453E0,1.0390814E1,8.849865E0,3.2490711E0,6.6867127E0,8.292408E-1,5.244748E-2,0E0,8.20689E0,0E0,0E0,0E0,0E0,0E0,0E0,0E0,6.3183126E0,9.074241E0,0E0,0E0,0E0,0E0,0E0,2.3454049E0,0E0,4.392598E0,0E0,5.7240143E0,0E0,0E0,0E0,0E0,0E0,0E0,0E0,0E0,0E0,0E0,0E0,0E0,0E0,0E0,0E0,0E0,0E0,0E0,0E0,0E0,0E0,0E0],"parents":[2147483647,0,0,1,1,2,2,3,3,4,4,5,5,6,6,7,7,8,8,9,9,10,10,11,11,12,12,13,13,14,14,15,15,16,16,19,19,21,21,23,23,25,25,26,26,28,28,29,29,30,30,32,32,33,33,35,35,41,41,42,42,44,44,45,45,46,46,47,47,49,49,50,50,51,51,52,52,55,55,56,56,61,61,62,62,63,63,64,64,66,66,67,67,68,68,71,71,72,72,73,73,74,74,75,75,76,76,77,77,79,79,87,87,88,88,94,94,96,96,98,98],"right_children":[2,4,6,8,10,12,14,16,18,20,22,24,26,28,30,32,34,-1,-1,36,-1,38,-1,40,-1,42,44,-1,46,48,50,-1,52,54,-1,56,-1,-1,-1,-1,-1,58,60,-1,62,64,66,68,-1,70,72,74,76,-1,-1,78,80,-1,-1,-1,-1,82,84,86,88,-1,90,92,94,-1,-1,96,98,100,102,104,106,108,-1,110,-1,-1,-1,-1,-1,-1,-1,112,114,-1,-1,-1,-1,-1,116,-1,118,-1,120,-1,-1,-1,-1,-1,-1,-1,-1,-1,-1,-1,-1,-1,-1,-1,-1,-1,-1,-1,-1,-1,-1],"split_conditions":[3.7E1,2.6E1,6E0,7.7E1,8.3E1,6E0,1.4E1,2.1E1,1.1E1,3.2E1,8.6E1,5.5E1,2E0,5.5E1,6.4E1,3E0,4E0,1.3178485E-3,-7.323461E-2,2.1E1,-7.514044E-2,6E0,-5.945612E-2,6E1,-2.3338929E-2,1.1E1,6.2E1,-6.4234674E-2,1.1E1,5E1,6.8E1,-6.954733E-2,1.3E1,1.4E1,5.56389E-2,2.9E1,-6.920879E-2,6.24096E-2,1.7026313E-2,2.1855587E-2,5.7672888E-2,6.3E1,1.1E1,-8.085228E-2,8E1,8E0,6.1E1,1E1,6.908503E-2,5.8E1,1.9E1,1.1E1,4.4E1,-1.4321906E-2,3.7368443E-2,4.3E1,1.7E1,2.9689068E-2,-7.070457E-2,-4.4874833E-3,4.625124E-2,6.3E1,5E0,6E0,5.2E1,-7.371401E-2,2E1,2.1E1,1.6E1,-3.3032408E-3,-6.6525094E-2,6.2E1,5E1,6E0,1.8E1,1E1,1.3E1,1E1,-6.5908425E-2,2E1,4.527354E-2,5.9041757E-2,4.7795937E-4,-6.423559E-2,-8.7972535E-3,1.2275074E-2,6.0134944E-2,3.9E1,7.1E1,4.8272884E-3,3.416392E-2,-6.535385E-2,5.853764E-2,6.3988276E-2,4.1E1,5.9607685E-2,1.3E1,-6.91172E-2,1E1,4.632962E-2,-1.3160512E-2,-5.555999E-2,9.233641E-3,-6.1245114E-2,3.6126416E-2,5.8098596E-2,1.9452846E-2,-3.7123119E-3,5.309432E-3,-6.0938776E-2,4.472333E-2,3.0280996E-2,-4.7245044E-2,3.9613977E-2,-2.1839026E-2,5.32776E-2,2.0211197E-3,5.123461E-2,-2.1607798E-2,-3.212784E-2,2.665973E-2],"split_indices":[2,2,1,4,4,5,5,1,2,2,4,2,1,4,4,5,0,0,0,0,0,1,0,4,0,0,2,0,5,2,4,0,0,2,0,2,0,0,0,0,0,4,5,0,4,1,2,1,0,2,5,1,4,0,0,4,0,0,0,0,0,2,1,5,2,0,0,5,5,0,0,2,2,0,5,5,5,1,0,1,0,0,0,0,0,0,0,2,4,0,0,0,0,0,2,0,1,0,1,0,0,0,0,0,0,0,0,0,0,0,0,0,0,0,0,0,0,0,0,0,0],"split_type":[0,0,0,0,0,0,0,0,0,0,0,0,0,0,0,0,0,0,0,0,0,0,0,0,0,0,0,0,0,0,0,0,0,0,0,0,0,0,0,0,0,0,0,0,0,0,0,0,0,0,0,0,0,0,0,0,0,0,0,0,0,0,0,0,0,0,0,0,0,0,0,0,0,0,0,0,0,0,0,0,0,0,0,0,0,0,0,0,0,0,0,0,0,0,0,0,0,0,0,0,0,0,0,0,0,0,0,0,0,0,0,0,0,0,0,0,0,0,0,0,0],"sum_hessian":[2.838785E2,1.1488681E2,1.689917E2,7.596828E1,3.8918526E1,4.4935894E1,1.2405581E2,6.83951E1,7.5731792E0,3.0709528E1,8.209E0,1.0287076E1,3.464882E1,5.5162853E1,6.889296E1,5.516371E1,1.323139E1,2.2349958E0,5.3381834E0,2.1050678E1,9.65885E0,6.0369377E0,2.1720617E0,7.189469E0,3.0976076E0,1.5394717E1,1.9254103E1,2.6737778E0,5.2489075E1,2.167649E1,4.721647E1,4.3267236E0,5.0836987E1,6.878091E0,6.3532996E0,1.5468469E1,5.5822096E0,2.2891893E0,3.7477484E0,3.2503054E0,3.9391632E0,7.1855807E0,8.209136E0,8.238964E0,1.1015138E1,4.2566826E1,9.922249E0,1.6173504E1,5.5029864E0,4.564306E0,4.2652164E1,3.619957E1,1.4637417E1,2.8615859E0,4.0165052E0,7.349196E0,8.119272E0,3.2982266E0,3.8873544E0,2.3564599E0,5.8526764E0,4.6325207E0,6.3826165E0,9.891625E0,3.2675198E1,4.8111386E0,5.11111E0,4.686153E0,1.148735E1,2.3818169E0,2.1824887E0,1.798967E1,2.4662495E1,2.552695E1,1.0672619E1,5.1805143E0,9.4569025E0,4.4752793E0,2.8739166E0,5.3751535E0,2.7441192E0,2.2507854E0,2.381735E0,3.533949E0,2.8486679E0,3.790989E0,6.1006365E0,9.511194E0,2.3164005E1,2.115278E0,2.9958324E0,2.4443882E0,2.241765E0,3.3273833E0,8.159967E0,1.1260322E1,6.7293477E0,3.6463935E0,2.1016102E1,8.65642E0,1.6870531E1,8.571142E0,2.1014767E0,2.1533208E0,3.0271933E0,5.9405932E0,3.5163095E0,2.3387043E0,2.1365752E0,2.577236E0,2.7979176E0,3.2843254E0,6.226869E0,1.39583025E1,9.205703E0,3.9372497E0,4.2227173E0,3.9039316E0,2.825416E0,4.505675E0,1.6510427E1],"tree_param":{"num_deleted":"0","num_feature":"6","num_nodes":"121","size_leaf_vector":"1"}},{"base_weights":[4.3847036E-2,-4.824475E-1,1.2073368E-1,1.776555E-1,-9.754153E-1,3.1807905E-1,-7.85635E-2,5.6331724E-2,-7.536181E-2,-7.140209E-2,-9.158153E-2,7.707493E-1,1.9125551E-1,-2.82211E-1,3.6395591E-1,-6.0284276E-2,4.0215313E-1,4.8414138E-1,-5.8264803E-2,2.768326E-1,1.2094554E0,5.017376E-1,-1.3080207E-1,-4.661631E-1,1.6782568E-1,7.276085E-1,7.720928E-2,-1.549169E-2,8.0703753E-1,-6.759792E-3,4.8745435E-2,7.4254596E-1,-3.4762427E-2,1.8654024E-2,7.2348446E-2,-4.17998E-1,6.325421E-1,-5.248982E-1,4.8496678E-1,-6.0184675E-1,6.335263E-1,4.5189175E-1,-8.001591E-1,-3.4806453E-2,9.9757475E-1,3.7517923E-1,-8.6843425E-1,1.5899277E-3,5.9988786E-2,6.1527718E-2,4.3906265E-1,6.976655E-3,-3.4800302E-2,1.4980343E-1,8.026189E-1,-7.5213596E-2,-1.8653524E-1,7.668841E-1,-6.1482914E-2,-4.1153565E-2,-8.491285E-1,6.099534E-2,5.8639864E-3,6.0899593E-2,1.47331E-1,-6.245033E-2,-2.1800555E-3,6.1409688E-3,-8.584204E-3,-5.279076E-3,6.232796E-2,5.716981E-1,-1.3816234E-1,-6.7335196E-2,1.0982474E-3,-1.4982204E-2,4.3535624E-2,9.1928136E-1,-5.4401803E-1,1.0155894E0,2.6369452E-1,-7.2751105E-1,1.8917103E-1,-1.0127204E-2,9.5177674E-1,3.6254483E-1,-6.805777E-2,-6.4323103E-1,-7.412279E-2,8.276666E-1,-3.8750413E-1,9.3069154E-1,-1.4981563E-1,-5.9489418E-2,3.9489727E-2,6.0079157E-2,2.4244245E-2,-6.842377E-2,1.1224552E-2,6.577915E-2,3.510333E-2,5.365118E-2,-1.8343342E-2,3.7014775E-2,-7.392409E-2,3.9988223E-2,-2.5939403E-2,1.0962339E-2,5.8830183E-2,-2.3088649E-2,3.087976E-2,-3.934006E-2,2.0139458E-2,5.904566E-2,1.9204758E-2,-3.5715498E-2,8.1645855E-4,6.041534E-2,-3.7419653E-4,5.75425E-4,-1.2836046E-2],"categories":[],"categories_nodes":[],"categories_segments":[],"categories_sizes":[],"default_left":[0,0,0,0,0,0,0,0,0,0,0,0,0,0,0,0,0,0,0,0,0,0,0,0,0,0,0,0,0,0,0,0,0,0,0,0,0,0,0,0,0,0,0,0,0,0,0,0,0,0,0,0,0,0,0,0,0,0,0,0,0,0,0,0,0,0,0,0,0,0,0,0,0,0,0,0,0,0,0,0,0,0,0,0,0,0,0,0,0,0,0,0,0,0,0,0,0,0,0,0,0,0,0,0,0,0,0,0,0,0,0,0,0,0,0,0,0,0,0,0,0],"id":14,"left_children":[1,3,5,7,9,11,13,-1,15,-1,17,19,21,23,25,-1,27,29,-1,31,33,35,37,39,41,43,45,-1,47,-1,-1,49,-1,-1,-1,51,53,55,57,59,61,63,65,67,69,71,73,-1,-1,-1,75,-1,-1,77,79,-1,81,83,-1,85,87,-1,-1,-1,89,-1,-1,-1,-1,-1,-1,91,93,-1,-1,-1,-1,95,97,99,101,103,105,-1,107,109,-1,111,-1,113,115,117,119,-1,-1,-1,-1,-1,-1,-1,-1,-1,-1,-1,-1,-1,-1,-1,-1,-1,-1,-1,-1,-1,-1,-1,-1,-1,-1,-1,-1],"loss_changes":[1.1575714E1,1.2044636E1,9.824013E0,4.03291E0,8.28565E0,7.050806E0,1.1346025E1,0E0,7.9974856E0,0E0,5.6292624E0,5.539625E0,9.992313E0,7.1981807E0,4.0895386E0,0E0,3.2869687E0,1.9677548E0,0E0,6.8766975E0,2.253374E0,6.3701496E0,1.2272096E1,9.530147E0,7.425522E0,3.6180143E0,6.9045997E0,0E0,2.091051E0,0E0,0E0,9.381299E-1,0E0,0E0,0E0,1.1699091E0,3.560482E0,9.885017E0,1.053594E1,7.6037655E0,2.0430236E0,4.603759E0,2.0473385E0,1.401566E-1,3.6722345E0,1.9404452E0,2.540319E0,0E0,0E0,0E0,2.7191963E0,0E0,0E0,7.3920345E0,3.5107613E0,0E0,5.003565E0,3.357995E0,0E0,1.0038718E1,4.025305E0,0E0,0E0,0E0,6.072145E0,0E0,0E0,0E0,0E0,0E0,0E0,3.646112E0,6.710592E0,0E0,0E0,0E0,0E0,2.135663E-1,5.0063314E0,1.2627697E0,5.8417354E0,1.2137869E1,6.8654275E0,0E0,2.2134132E0,3.3351672E0,0E0,4.90938E0,0E0,6.864586E-1,1.2694651E0,2.399713E0,9.538468E-2,0E0,0E0,0E0,0E0,0E0,0E0,0E0,0E0,0E0,0E0,0E0,0E0,0E0,0E0,0E0,0E0,0E0,0E0,0E0,0E0,0E0,0E0,0E0,0E0,0E0,0E0,0E0,0E0],"parents":[2147483647,0,0,1,1,2,2,3,3,4,4,5,5,6,6,8,8,10,10,11,11,12,12,13,13,14,14,16,16,17,17,19,19,20,20,21,21,22,22,23,23,24,24,25,25,26,26,28,28,31,31,35,35,36,36,37,37,38,38,39,39,40,40,41,41,42,42,43,43,44,44,45,45,46,46,50,50,53,53,54,54,56,56,57,57,59,59,60,60,64,64,71,71,72,72,77,77,78,78,79,79,80,80,81,81,82,82,84,84,85,85,87,87,89,89,90,90,91,91,92,92],"right_children":[2,4,6,8,10,12,14,-1,16,-1,18,20,22,24,26,-1,28,30,-1,32,34,36,38,40,42,44,46,-1,48,-1,-1,50,-1,-1,-1,52,54,56,58,60,62,64,66,68,70,72,74,-1,-1,-1,76,-1,-1,78,80,-1,82,84,-1,86,88,-1,-1,-1,90,-1,-1,-1,-1,-1,-1,92,94,-1,-1,-1,-1,96,98,100,102,104,106,-1,108,110,-1,112,-1,114,116,118,120,-1,-1,-1,-1,-1,-1,-1,-1,-1,-1,-1,-1,-1,-1,-1,-1,-1,-1,-1,-1,-1,-1,-1,-1,-1,-1,-1,-1],"split_conditions":[4E0,6.2E1,1.3E1,2.9E1,8.4E1,6E0,2.2E1,5.6331724E-2,5E1,-7.140209E-2,3E0,8E0,7E0,3.2E1,2.4E1,-6.0284276E-2,3E0,4.4E1,-5.8264803E-2,5.9E1,4.7E1,6E0,1.1E1,2.2E1,1.9E1,7E0,7.9E1,-1.549169E-2,1.1E1,-6.759792E-3,4.8745435E-2,2.2E1,-3.4762427E-2,1.8654024E-2,7.2348446E-2,2E0,7E1,4E0,1.8E1,6E0,3.2E1,6E0,1.3E1,5.9E1,5.3E1,1.6E1,8.6E1,1.5899277E-3,5.9988786E-2,6.1527718E-2,4.5E1,6.976655E-3,-3.4800302E-2,5.2E1,8.4E1,-7.5213596E-2,1.4E1,1.2E1,-6.1482914E-2,2.4E1,1.9E1,6.099534E-2,5.8639864E-3,6.0899593E-2,3.8E1,-6.245033E-2,-2.1800555E-3,6.1409688E-3,-8.584204E-3,-5.279076E-3,6.232796E-2,6.4E1,7.1E1,-6.7335196E-2,1.0982474E-3,-1.4982204E-2,4.3535624E-2,2E0,1E1,1.5E1,6E0,6E0,1.9E1,-1.0127204E-2,7E0,1.6E1,-6.805777E-2,8.3E1,-7.412279E-2,3E0,1.4E1,2.2E1,1.3E1,-5.9489418E-2,3.9489727E-2,6.0079157E-2,2.4244245E-2,-6.842377E-2,1.1224552E-2,6.577915E-2,3.510333E-2,5.365118E-2,-1.8343342E-2,3.7014775E-2,-7.392409E-2,3.9988223E-2,-2.5939403E-2,1.0962339E-2,5.8830183E-2,-2.3088649E-2,3.087976E-2,-3.934006E-2,2.0139458E-2,5.904566E-2,1.9204758E-2,-3.5715498E-2,8.1645855E-4,6.041534E-2,-3.7419653E-4,5.75425E-4,-1.2836046E-2],"split_indices":[3,4,3,4,4,0,3,0,4,0,3,3,3,0,3,0,3,0,0,4,4,5,3,1,3,1,4,0,5,0,0,4,0,0,0,1,4,1,5,1,4,5,1,4,4,1,4,0,0,0,4,0,0,4,4,0,5,0,0,5,0,0,0,0,0,0,0,0,0,0,0,4,4,0,0,0,0,1,1,0,1,1,5,0,5,3,0,4,0,1,1,0,5,0,0,0,0,0,0,0,0,0,0,0,0,0,0,0,0,0,0,0,0,0,0,0,0,0,0,0,0],"split_type":[0,0,0,0,0,0,0,0,0,0,0,0,0,0,0,0,0,0,0,0,0,0,0,0,0,0,0,0,0,0,0,0,0,0,0,0,0,0,0,0,0,0,0,0,0,0,0,0,0,0,0,0,0,0,0,0,0,0,0,0,0,0,0,0,0,0,0,0,0,0,0,0,0,0,0,0,0,0,0,0,0,0,0,0,0,0,0,0,0,0,0,0,0,0,0,0,0,0,0,0,0,0,0,0,0,0,0,0,0,0,0,0,0,0,0,0,0,0,0,0,0],"sum_hessian":[2.8362772E2,3.548125E1,2.4814647E2,1.5442614E1,2.0038637E1,1.2438431E2,1.2376216E2,2.5238276E0,1.2918786E1,1.284484E1,7.193797E0,2.6110603E1,9.8273705E1,8.500507E1,3.8757084E1,3.383886E0,9.5349E0,5.040299E0,2.1534982E0,1.3049671E1,1.3060932E1,4.9752E1,4.8521706E1,6.031538E1,2.4689693E1,1.6409307E1,2.2347776E1,3.5416636E0,5.993236E0,2.5485756E0,2.4917233E0,8.98242E0,4.0672507E0,3.4572887E0,9.603643E0,5.921328E0,4.3830673E1,2.9676271E1,1.8845434E1,5.4093803E1,6.221577E0,1.9500278E1,5.189415E0,4.518795E0,1.1890513E1,1.7451962E1,4.8958154E0,2.3787363E0,3.6144998E0,2.2728524E0,6.7095675E0,2.1359289E0,3.7853994E0,1.1909127E1,3.1921545E1,6.7353683E0,2.2940903E1,1.6659098E1,2.1863363E0,1.691246E1,3.7181343E1,2.2747562E0,3.946821E0,4.693913E0,1.4806366E1,2.848539E0,2.3408756E0,2.147955E0,2.37084E0,2.295586E0,9.594927E0,1.2538324E1,4.9136376E0,2.8516214E0,2.0441942E0,2.5874074E0,4.1221604E0,5.4926205E0,6.4165072E0,2.224598E1,9.675567E0,9.018652E0,1.3922252E1,2.6530697E0,1.4006029E1,1.3506952E1,3.405509E0,2.9580297E1,7.6010456E0,6.2757707E0,8.530595E0,8.178933E0,4.359391E0,2.1710696E0,2.742568E0,2.258675E0,3.2339454E0,2.7189384E0,3.6975687E0,9.734964E0,1.2511015E1,3.9298663E0,5.7457004E0,3.0572777E0,5.961374E0,7.4055295E0,6.5167227E0,3.753048E0,1.0252981E1,3.0001166E0,1.0506836E1,2.6228195E1,3.352103E0,2.5682282E0,3.7075427E0,4.290027E0,4.2405677E0,6.089159E0,2.089774E0,2.0931284E0,2.2662628E0],"tree_param":{"num_deleted":"0","num_feature":"6","num_nodes":"121","size_leaf_vector":"1"}},{"base_weights":[3.1647824E-2,-7.474354E-1,9.768478E-2,1.03606805E-1,-1.1450835E0,6.980276E-2,1.073807E0,-4.2597145E-1,3.802567E-2,-6.6945784E-2,-1.44361025E-2,-5.8093812E-2,8.557991E-2,2.66906E-2,6.5803446E-2,1.4703869E-2,-4.928915E-2,-1.6692324E-2,2.0383905E-1,2.3719226E-1,-2.4779347E-1,1.1299322E0,1.4254992E-1,3.4928897E-1,-5.852021E-1,-7.9028755E-1,7.0824036E-3,7.033056E-2,2.5870025E-2,4.3828595E-1,1.05518205E-2,-5.3832936E-1,4.8981056E-1,-7.096763E-2,3.4348343E-2,-7.7826366E-2,2.1998538E-1,4.9897403E-2,-6.4925015E-2,5.781461E-1,-2.6554007E-2,-5.737395E-1,1.04630895E-1,-4.053569E-2,9.502162E-3,5.0735828E-2,1.6519714E-2,4.0444147E-2,-2.9340273E-2,6.6796564E-3,-2.3381896E-2,3.4483295E-2,-3.3019595E-3,-6.506913E-2,-1.1209046E-2,-4.8955693E-3,1.8124793E-2],"categories":[],"categories_nodes":[],"categories_segments":[],"categories_sizes":[],"default_left":[0,0,0,0,0,0,0,0,0,0,0,0,0,0,0,0,0,0,0,0,0,0,0,0,0,0,0,0,0,0,0,0,0,0,0,0,0,0,0,0,0,0,0,0,0,0,0,0,0,0,0,0,0,0,0,0,0],"id":15,"left_children":[1,3,5,7,9,11,13,15,-1,-1,-1,-1,17,-1,-1,-1,-1,19,21,23,25,27,29,31,33,35,37,-1,-1,39,41,43,45,-1,-1,-1,47,-1,49,51,-1,53,55,-1,-1,-1,-1,-1,-1,-1,-1,-1,-1,-1,-1,-1,-1],"loss_changes":[1.4863886E1,7.7599945E0,7.1621275E0,3.1444628E0,2.1816616E0,5.1439886E0,2.5441933E-1,2.3576868E0,0E0,0E0,0E0,0E0,3.1146665E0,0E0,0E0,0E0,0E0,8.206707E0,6.614489E0,6.351861E0,1.0124933E1,5.035219E-1,4.410722E0,7.661547E0,9.86016E0,1.8458542E1,3.6881826E0,0E0,0E0,5.0359564E0,4.415141E0,1.8568761E0,3.9933062E0,0E0,0E0,0E0,5.686719E0,0E0,3.922417E0,2.2697687E0,0E0,2.5422256E0,3.643744E0,0E0,0E0,0E0,0E0,0E0,0E0,0E0,0E0,0E0,0E0,0E0,0E0,0E0,0E0],"parents":[2147483647,0,0,1,1,2,2,3,3,4,4,5,5,6,6,7,7,12,12,17,17,18,18,19,19,20,20,21,21,22,22,23,23,24,24,25,25,26,26,29,29,30,30,31,31,32,32,36,36,38,38,39,39,41,41,42,42],"right_children":[2,4,6,8,10,12,14,16,-1,-1,-1,-1,18,-1,-1,-1,-1,20,22,24,26,28,30,32,34,36,38,-1,-1,40,42,44,46,-1,-1,-1,48,-1,50,52,-1,54,56,-1,-1,-1,-1,-1,-1,-1,-1,-1,-1,-1,-1,-1,-1],"split_conditions":[3E0,6E0,2.5E1,2E0,4.4E1,6E0,2.8E1,1E1,3.802567E-2,-6.6945784E-2,-1.44361025E-2,-5.8093812E-2,4.7E1,2.66906E-2,6.5803446E-2,1.4703869E-2,-4.928915E-2,8E0,2E0,2.4E1,9E0,7E0,7E0,1.8E1,1.8E1,2E1,9E0,7.033056E-2,2.5870025E-2,7.1E1,1.1E1,1.9E1,2.1E1,-7.096763E-2,3.4348343E-2,-7.7826366E-2,2.6E1,4.9897403E-2,1.9E1,5.1E1,-2.6554007E-2,1.7E1,6.5E1,-4.053569E-2,9.502162E-3,5.0735828E-2,1.6519714E-2,4.0444147E-2,-2.9340273E-2,6.6796564E-3,-2.3381896E-2,3.4483295E-2,-3.3019595E-3,-6.506913E-2,-1.1209046E-2,-4.8955693E-3,1.8124793E-2],"split_indices":[3,0,5,3,0,2,2,5,0,0,0,0,2,0,0,0,0,1,0,5,5,5,3,2,3,1,2,0,0,2,3,3,2,0,0,0,2,0,5,0,0,0,2,0,0,0,0,0,0,0,0,0,0,0,0,0,0],"split_type":[0,0,0,0,0,0,0,0,0,0,0,0,0,0,0,0,0,0,0,0,0,0,0,0,0,0,0,0,0,0,0,0,0,0,0,0,0,0,0,0,0,0,0,0,0,0,0,0,0,0,0,0,0,0,0,0,0],"sum_hessian":[2.864901E2,2.1579813E1,2.649103E2,7.1076183E0,1.4472196E1,2.5859528E2,6.3150215E0,4.1298265E0,2.9777918E0,1.13416E1,3.1305952E0,2.3518243E0,2.5624347E2,2.9478326E0,3.3671887E0,2.0140157E0,2.1158106E0,1.3787018E2,1.1837329E2,6.568413E1,7.218605E1,6.2654076E0,1.1210788E2,5.8311268E1,7.372857E0,2.2402487E1,4.978356E1,3.4229023E0,2.8425055E0,3.3880253E1,7.822763E1,7.582804E0,5.0728462E1,4.3831606E0,2.9896965E0,1.2432431E1,9.970056E0,2.501564E0,4.7281998E1,2.9961056E1,3.9191976E0,1.0141838E1,6.808579E1,5.43665E0,2.1461542E0,1.0567599E1,4.0160866E1,5.761786E0,4.2082696E0,3.2117756E1,1.5164244E1,2.5479502E1,4.4815536E0,2.4074812E0,7.7343564E0,3.848092E1,2.9604874E1],"tree_param":{"num_deleted":"0","num_feature":"6","num_nodes":"57","size_leaf_vector":"1"}},{"base_weights":[-2.220051E-3,-6.843902E-1,5.404477E-2,-9.238084E-1,2.1038435E-2,1.8251424E-1,-9.604863E-2,-2.698021E-2,-6.5305255E-2,3.0155474E-1,-1.6548888E-1,-2.8227714E-1,3.003725E-1,3.9677314E-2,-5.0237466E-2,6.902265E-2,6.4173955E-1,-5.4533017E-1,3.372514E-1,3.6177006E-1,-5.317184E-1,6.935404E-1,-2.2704843E-2,6.8611664E-1,-1.4813782E-1,-2.396217E-2,7.5310254E-1,1.4595234E-1,-8.380222E-1,5.1274218E-2,-2.9819307E-1,3.5884008E-3,6.755406E-1,-9.289974E-1,5.1773796E-3,3.4300503E-1,5.8039196E-2,2.1662103E-1,-7.700983E-1,2.8908256E-1,5.632026E-2,-1.128175E0,7.418899E-2,1.0782545E0,5.178266E-1,4.746314E-2,-2.5286598E-2,-7.707842E-2,-1.4284042E-1,-8.444791E-1,2.615787E-2,-5.3400254E-1,3.743252E-2,1.0569097E0,-1.0241557E-2,-7.486268E-2,-6.9139355E-1,2.7738908E-1,-6.639674E-2,3.1745676E-2,5.5968117E-2,-3.6731344E-1,5.2516603E-1,3.1177362E-3,-6.480041E-2,-2.6107702E-2,8.2564235E-1,-7.72905E-2,5.978574E-3,3.109384E-1,-5.532777E-1,6.2379178E-2,5.596545E-1,3.488346E-1,6.118216E-2,-2.8365914E-2,1.3851427E-2,-6.7860655E-2,1.8630509E-3,1.1005386E-2,-6.429504E-2,5.8225933E-3,6.9365405E-2,6.419115E-3,-6.6700154E-3,-4.552326E-1,-6.959244E-2,4.788946E-1,-2.79105E-2,3.9363414E-1,-2.5694499E-2,1.624968E-2,-6.1327834E-2,-8.720863E-3,7.1233433E-1,2.0549525E-2,5.551318E-2,3.814637E-3,5.720241E-2,-6.544173E-2,4.8872054E-4,-6.542859E-3,5.544247E-2,6.1880755E-3,4.1809898E-2,-5.0846275E-2,-5.80424E-3,-8.780154E-3,2.9552309E-2,4.225082E-2,-7.0636743E-3,4.6902798E-2,1.989059E-2],"categories":[],"categories_nodes":[],"categories_segments":[],"categories_sizes":[],"default_left":[0,0,0,0,0,0,0,0,0,0,0,0,0,0,0,0,0,0,0,0,0,0,0,0,0,0,0,0,0,0,0,0,0,0,0,0,0,0,0,0,0,0,0,0,0,0,0,0,0,0,0,0,0,0,0,0,0,0,0,0,0,0,0,0,0,0,0,0,0,0,0,0,0,0,0,0,0,0,0,0,0,0,0,0,0,0,0,0,0,0,0,0,0,0,0,0,0,0,0,0,0,0,0,0,0,0,0,0,0,0,0,0,0],"id":16,"left_children":[1,3,5,7,-1,9,11,13,-1,15,17,19,21,-1,-1,23,25,27,29,31,33,35,37,39,41,-1,43,45,47,-1,49,51,53,55,57,59,-1,61,63,65,-1,67,69,71,73,-1,-1,-1,75,77,-1,79,-1,81,83,-1,85,87,-1,89,-1,91,93,-1,-1,-1,95,-1,-1,97,99,-1,101,103,-1,-1,-1,-1,-1,-1,-1,-1,-1,-1,-1,105,-1,107,-1,109,-1,-1,-1,-1,111,-1,-1,-1,-1,-1,-1,-1,-1,-1,-1,-1,-1,-1,-1,-1,-1,-1,-1],"loss_changes":[1.0562305E1,5.936637E0,4.92021E0,5.98083E0,0E0,5.7394805E0,8.789845E0,5.8239794E0,0E0,8.078899E0,6.991962E0,1.3163725E1,4.8646E0,0E0,0E0,8.425823E0,5.550764E0,4.308587E0,7.286239E0,2.5978045E0,1.25052395E1,2.4272003E0,4.0881076E0,2.531968E0,1.0274339E1,0E0,2.364376E0,4.1478047E0,6.961605E0,0E0,4.5130854E0,5.1297307E0,3.2348948E0,3.5133324E0,9.773647E0,2.689183E0,0E0,3.325286E0,2.5047846E0,4.758164E0,0E0,4.7235594E0,5.9745097E0,6.2911034E-1,2.4465632E0,0E0,0E0,0E0,1.6699368E0,2.6871324E0,0E0,4.5034475E0,0E0,2.3029861E0,1.09248586E-1,0E0,3.6033049E0,4.0306025E0,0E0,1.9947884E0,0E0,4.3240848E0,1.667598E0,0E0,0E0,0E0,2.9557037E-1,0E0,0E0,5.581786E0,4.7179976E0,0E0,2.2437482E0,2.1819816E0,0E0,0E0,0E0,0E0,0E0,0E0,0E0,0E0,0E0,0E0,0E0,3.8139906E0,0E0,1.4651117E0,0E0,1.5739021E0,0E0,0E0,0E0,0E0,3.009653E-1,0E0,0E0,0E0,0E0,0E0,0E0,0E0,0E0,0E0,0E0,0E0,0E0,0E0,0E0,0E0,0E0,0E0,0E0],"parents":[2147483647,0,0,1,1,2,2,3,3,5,5,6,6,7,7,9,9,10,10,11,11,12,12,15,15,16,16,17,17,18,18,19,19,20,20,21,21,22,22,23,23,24,24,26,26,27,27,28,28,30,30,31,31,32,32,33,33,34,34,35,35,37,37,38,38,39,39,41,41,42,42,43,43,44,44,48,48,49,49,51,51,53,53,54,54,56,56,57,57,59,59,61,61,62,62,66,66,69,69,70,70,72,72,73,73,85,85,87,87,89,89,94,94],"right_children":[2,4,6,8,-1,10,12,14,-1,16,18,20,22,-1,-1,24,26,28,30,32,34,36,38,40,42,-1,44,46,48,-1,50,52,54,56,58,60,-1,62,64,66,-1,68,70,72,74,-1,-1,-1,76,78,-1,80,-1,82,84,-1,86,88,-1,90,-1,92,94,-1,-1,-1,96,-1,-1,98,100,-1,102,104,-1,-1,-1,-1,-1,-1,-1,-1,-1,-1,-1,106,-1,108,-1,110,-1,-1,-1,-1,112,-1,-1,-1,-1,-1,-1,-1,-1,-1,-1,-1,-1,-1,-1,-1,-1,-1,-1],"split_conditions":[3E0,8.4E1,1.3E1,6E0,2.1038435E-2,8E1,2.2E1,3E1,-6.5305255E-2,1.4E1,2.5E1,5E1,2.4E1,3.9677314E-2,-5.0237466E-2,6E0,2.1E1,6E0,3.3E1,1.6E1,2.9E1,5.2E1,7.9E1,3.7E1,8E0,-2.396217E-2,1.6E1,7E0,9E0,5.1274218E-2,5.5E1,1.9E1,2E1,6.2E1,1.9E1,7.8E1,5.8039196E-2,1.4E1,9E0,7E0,5.632026E-2,7E1,2.3E1,2.3E1,2.5E1,4.746314E-2,-2.5286598E-2,-7.707842E-2,1.4E1,7E1,2.615787E-2,5E0,3.743252E-2,3.1E1,2.8E1,-7.486268E-2,1.9E1,5.9E1,-6.639674E-2,1.3E1,5.5968117E-2,5E0,4E0,3.1177362E-3,-6.480041E-2,-2.6107702E-2,5E0,-7.72905E-2,5.978574E-3,7.5E1,3.1E1,6.2379178E-2,1.1E1,3E1,6.118216E-2,-2.8365914E-2,1.3851427E-2,-6.7860655E-2,1.8630509E-3,1.1005386E-2,-6.429504E-2,5.8225933E-3,6.9365405E-2,6.419115E-3,-6.6700154E-3,7E0,-6.959244E-2,6.1E1,-2.79105E-2,7E0,-2.5694499E-2,1.624968E-2,-6.1327834E-2,-8.720863E-3,6.4E1,2.0549525E-2,5.551318E-2,3.814637E-3,5.720241E-2,-6.544173E-2,4.8872054E-4,-6.542859E-3,5.544247E-2,6.1880755E-3,4.1809898E-2,-5.0846275E-2,-5.80424E-3,-8.780154E-3,2.9552309E-2,4.225082E-2,-7.0636743E-3,4.6902798E-2,1.989059E-2],"split_indices":[3,4,3,5,0,4,3,2,0,5,0,4,3,0,0,0,2,3,0,3,0,2,4,2,0,0,5,5,3,0,0,5,3,4,3,4,0,5,0,5,0,4,0,0,5,0,0,0,5,2,0,5,0,4,4,0,0,0,0,5,0,5,0,0,0,0,0,0,0,4,0,0,3,0,0,0,0,0,0,0,0,0,0,0,0,0,0,4,0,0,0,0,0,0,4,0,0,0,0,0,0,0,0,0,0,0,0,0,0,0,0,0,0],"split_type":[0,0,0,0,0,0,0,0,0,0,0,0,0,0,0,0,0,0,0,0,0,0,0,0,0,0,0,0,0,0,0,0,0,0,0,0,0,0,0,0,0,0,0,0,0,0,0,0,0,0,0,0,0,0,0,0,0,0,0,0,0,0,0,0,0,0,0,0,0,0,0,0,0,0,0,0,0,0,0,0,0,0,0,0,0,0,0,0,0,0,0,0,0,0,0,0,0,0,0,0,0,0,0,0,0,0,0,0,0,0,0,0,0],"sum_hessian":[2.732241E2,1.9967607E1,2.5325648E2,1.6547009E1,3.4205983E0,1.363416E2,1.16914894E2,5.265431E0,1.1281578E1,1.0169018E2,3.4651417E1,7.974205E1,3.717284E1,2.9653625E0,2.3000684E0,6.1116867E1,4.057331E1,1.9690048E1,1.4961369E1,2.213641E1,5.760564E1,1.6250355E1,2.0922485E1,1.53468895E1,4.5769978E1,3.367953E0,3.7205357E1,6.00611E0,1.3683938E1,6.8876896E0,8.073679E0,1.0808972E1,1.1327437E1,3.2687805E1,2.4917837E1,1.0275542E1,5.974813E0,1.6385715E1,4.536771E0,8.940916E0,6.405974E0,7.7098494E0,3.8060127E1,1.41151905E1,2.3090168E1,2.4855824E0,3.5205278E0,6.1959424E0,7.487995E0,4.8318334E0,3.2418458E0,6.443219E0,4.365753E0,6.931564E0,4.3958735E0,8.074723E0,2.4613081E1,2.1350206E1,3.567631E0,8.077842E0,2.1977003E0,5.5989656E0,1.0786749E1,2.0977366E0,2.4390342E0,3.5700805E0,5.3708353E0,5.5974407E0,2.1124084E0,2.7999931E1,1.0060198E1,9.581154E0,4.534036E0,1.983528E1,3.254887E0,3.5489297E0,3.9390655E0,2.7142475E0,2.117586E0,3.5699904E0,2.873229E0,2.1536877E0,4.7778764E0,2.0481377E0,2.3477361E0,1.9640968E1,4.972114E0,1.7545885E1,3.8043218E0,5.024175E0,3.0536668E0,3.4450207E0,2.153945E0,2.2911587E0,8.49559E0,3.180825E0,2.19001E0,2.2698473E1,5.301457E0,3.730168E0,6.3300295E0,2.3460448E0,2.1879916E0,1.4426709E1,5.408571E0,6.642033E0,1.2998935E1,2.483987E0,1.5061897E1,2.410408E0,2.6137674E0,3.7918444E0,4.7037463E0],"tree_param":{"num_deleted":"0","num_feature":"6","num_nodes":"113","size_leaf_vector":"1"}},{"base_weights":[-6.722613E-2,-6.176597E-2,-3.170099E-2,-5.8588207E-2,-1.6187824E-2,6.0250755E-2,-4.492759E-2,-6.7356184E-2,8.910029E-1,1.62832E-2,-2.996789E-1,5.8728036E-2,2.1021076E-2,-1.2718904E-1,4.0425003E-1,-9.5856774E-1,-4.7384687E-2,-5.6154795E-2,-9.2220254E-2,-7.038828E-1,5.240214E-1,-1.2966329E0,2.469246E-2,-2.7254805E-1,5.727488E-1,5.3167823E-3,-1.3478558E-2,5.270414E-3,-6.396901E-2,4.305591E-2,1.21975085E-2,-7.6366834E-2,4.9582194E-3,2.7709836E-2,-2.6615633E-2,-1.8008383E-2,4.39081E-2],"categories":[],"categories_nodes":[],"categories_segments":[],"categories_sizes":[],"default_left":[0,0,0,0,0,0,0,0,0,0,0,0,0,0,0,0,0,0,0,0,0,0,0,0,0,0,0,0,0,0,0,0,0,0,0,0,0],"id":17,"left_children":[1,-1,3,-1,5,-1,7,9,11,13,15,-1,-1,17,19,21,23,-1,25,27,29,31,-1,33,35,-1,-1,-1,-1,-1,-1,-1,-1,-1,-1,-1,-1],"loss_changes":[1.1250891E1,0E0,4.66901E0,0E0,9.267926E0,0E0,5.46432E0,4.90848E0,3.195467E-1,1.0432578E1,1.1067871E1,0E0,0E0,4.664507E0,7.083173E0,9.703821E0,7.0531335E0,0E0,4.7247443E0,2.6318524E0,4.154353E0,5.0619926E0,0E0,8.222797E0,4.1570067E0,0E0,0E0,0E0,0E0,0E0,0E0,0E0,0E0,0E0,0E0,0E0,0E0],"parents":[2147483647,0,0,2,2,4,4,6,6,7,7,8,8,9,9,10,10,13,13,14,14,15,15,16,16,18,18,19,19,20,20,21,21,23,23,24,24],"right_children":[2,-1,4,-1,6,-1,8,10,12,14,16,-1,-1,18,20,22,24,-1,26,28,30,32,-1,34,36,-1,-1,-1,-1,-1,-1,-1,-1,-1,-1,-1,-1],"split_conditions":[2E0,-6.176597E-2,6E0,-5.8588207E-2,8E0,6.0250755E-2,2.5E1,1.9E1,3E0,1.4E1,2.2E1,5.8728036E-2,2.1021076E-2,3E0,2.5E1,2.5E1,2E1,-5.6154795E-2,8E0,1.4E1,1.7E1,4.1E1,2.469246E-2,2.4E1,9E0,5.3167823E-3,-1.3478558E-2,5.270414E-3,-6.396901E-2,4.305591E-2,1.21975085E-2,-7.6366834E-2,4.9582194E-3,2.7709836E-2,-2.6615633E-2,-1.8008383E-2,4.39081E-2],"split_indices":[3,0,2,0,2,0,5,5,0,5,5,0,0,3,2,3,1,0,1,2,0,0,0,5,3,0,0,0,0,0,0,0,0,0,0,0,0],"split_type":[0,0,0,0,0,0,0,0,0,0,0,0,0,0,0,0,0,0,0,0,0,0,0,0,0,0,0,0,0,0,0,0,0,0,0,0,0],"sum_hessian":[2.7107126E2,7.0039215E0,2.6406735E2,2.5444188E0,2.6152292E2,5.0720987E0,2.5645084E2,2.513554E2,5.095436E0,1.8550201E2,6.585337E1,2.246055E0,2.8493812E0,1.3591286E2,4.958915E1,1.7458788E1,4.8394585E1,3.5548234E0,1.3235803E2,4.3612924E0,4.522786E1,1.4249359E1,3.2094285E0,3.5914825E1,1.247976E1,6.2634766E1,6.9723274E1,2.1519544E0,2.2093382E0,1.9582958E1,2.5644901E1,1.2147349E1,2.10201E0,8.315592E0,2.7599234E1,3.033707E0,9.4460535E0],"tree_param":{"num_deleted":"0","num_feature":"6","num_nodes":"37","size_leaf_vector":"1"}},{"base_weights":[4.7091488E-2,-1.2258049E-1,1.6452332E-1,-3.6501233E-2,-6.667414E-2,7.845939E-1,9.469719E-2,-1.3845749E-1,4.5148775E-1,-5.047428E-3,9.308671E-1,-1.0483706E0,1.5479842E-1,2.2175873E-2,-5.4927516E-1,-1.241693E-1,6.4257354E-1,5.7129586E-1,6.387298E-2,-9.362861E-3,-6.7361556E-2,5.1273376E-1,7.494778E-2,3.2418498E-1,-3.273549E-1,-2.2148567E-1,-1.0320815E0,-1.3770874E-2,4.5576054E-3,6.104154E-2,1.5599583E-1,4.6940807E-2,2.8990012E-1,8.4588814E-1,-1.3467324E-1,1.5556785E-1,-6.218307E-1,4.8928708E-2,1.4832863E-1,-6.98541E-2,-3.8044434E-2,-8.143183E-1,8.763024E-1,-6.682787E-2,-1.0603333E-2,7.062264E-1,-2.7451754E-2,3.1627942E-2,-8.4637E-3,2.9500818E-1,1.1907866E0,-6.933583E-1,2.4485327E-2,-6.578406E-2,3.3724558E-1,-7.044759E-2,7.5004286E-1,4.2410973E-1,-6.129512E-1,2.2747071E-1,-8.307754E-1,-1.0175767E0,2.8218534E-3,5.6470282E-2,2.3705052E-2,4.8149876E-2,9.368883E-3,4.2814303E-2,-2.3868553E-2,2.8012905E-2,6.7500494E-2,8.141082E-3,-6.145233E-2,2.1898068E-1,-9.406599E-1,8.772229E-1,2.1694896E-1,3.3543594E-4,6.087118E-2,-2.5300702E-2,3.1822044E-2,7.524372E-3,-4.3953296E-2,-5.366528E-3,2.516768E-2,3.8146283E-3,-6.2678255E-2,-6.8331055E-2,2.7474645E-3,1.8882072E-2,-4.1371815E-2,-7.496545E-2,1.5918827E-2,4.1832128E-3,5.3276617E-2,-1.9296823E-2,1.7072199E-2],"categories":[],"categories_nodes":[],"categories_segments":[],"categories_sizes":[],"default_left":[0,0,0,0,0,0,0,0,0,0,0,0,0,0,0,0,0,0,0,0,0,0,0,0,0,0,0,0,0,0,0,0,0,0,0,0,0,0,0,0,0,0,0,0,0,0,0,0,0,0,0,0,0,0,0,0,0,0,0,0,0,0,0,0,0,0,0,0,0,0,0,0,0,0,0,0,0,0,0,0,0,0,0,0,0,0,0,0,0,0,0,0,0,0,0,0,0],"id":18,"left_children":[1,3,5,7,-1,9,11,13,15,-1,17,19,21,23,25,27,29,31,-1,-1,-1,33,35,37,39,41,43,-1,-1,-1,45,-1,47,49,51,53,55,-1,57,-1,59,61,63,-1,-1,65,-1,-1,-1,67,69,71,-1,73,75,-1,77,79,81,83,85,87,-1,-1,-1,-1,-1,-1,-1,-1,-1,-1,-1,89,91,93,95,-1,-1,-1,-1,-1,-1,-1,-1,-1,-1,-1,-1,-1,-1,-1,-1,-1,-1,-1,-1],"loss_changes":[5.7678485E0,1.2309532E1,7.3253875E0,5.62107E0,0E0,2.3167772E0,1.0793188E1,6.1611614E0,2.2294977E0,0E0,1.1178226E0,1.770134E0,4.1883516E0,7.2788005E0,3.922727E0,2.1101259E-1,3.9834566E0,6.6745234E-1,0E0,0E0,0E0,5.894891E0,6.954677E0,4.1074986E0,9.84831E0,1.1710257E1,2.2967377E0,0E0,0E0,0E0,3.9575791E0,0E0,1.1443301E0,3.0370426E0,3.8170795E0,4.454749E0,1.4944197E1,0E0,6.6225157E0,0E0,5.705875E0,2.0910707E0,1.1674738E-1,0E0,0E0,5.664096E-1,0E0,0E0,0E0,3.9617727E0,3.1163025E-1,2.803052E0,0E0,1.2792936E1,3.7525778E0,0E0,1.8475194E0,4.832345E0,1.8526642E0,1.9400926E0,2.7000794E0,3.5821896E0,0E0,0E0,0E0,0E0,0E0,0E0,0E0,0E0,0E0,0E0,0E0,6.775419E0,9.336425E0,1.5143452E0,3.9573286E0,0E0,0E0,0E0,0E0,0E0,0E0,0E0,0E0,0E0,0E0,0E0,0E0,0E0,0E0,0E0,0E0,0E0,0E0,0E0,0E0],"parents":[2147483647,0,0,1,1,2,2,3,3,5,5,6,6,7,7,8,8,10,10,11,11,12,12,13,13,14,14,15,15,16,16,17,17,21,21,22,22,23,23,24,24,25,25,26,26,30,30,32,32,33,33,34,34,35,35,36,36,38,38,40,40,41,41,42,42,45,45,49,49,50,50,51,51,53,53,54,54,56,56,57,57,58,58,59,59,60,60,61,61,73,73,74,74,75,75,76,76],"right_children":[2,4,6,8,-1,10,12,14,16,-1,18,20,22,24,26,28,30,32,-1,-1,-1,34,36,38,40,42,44,-1,-1,-1,46,-1,48,50,52,54,56,-1,58,-1,60,62,64,-1,-1,66,-1,-1,-1,68,70,72,-1,74,76,-1,78,80,82,84,86,88,-1,-1,-1,-1,-1,-1,-1,-1,-1,-1,-1,90,92,94,96,-1,-1,-1,-1,-1,-1,-1,-1,-1,-1,-1,-1,-1,-1,-1,-1,-1,-1,-1,-1],"split_conditions":[3.7E1,2.3E1,5.3E1,2.1E1,-6.667414E-2,4.4E1,5.8E1,1.1E1,1.5E1,-5.047428E-3,2E1,9E0,7E0,5.8E1,2.1E1,4.7E1,2.2E1,4.1E1,6.387298E-2,-9.362861E-3,-6.7361556E-2,1.6E1,7.3E1,6E0,6.3E1,1.2E1,2.4E1,-1.3770874E-2,4.5576054E-3,6.104154E-2,1E1,4.6940807E-2,5E0,9E0,1.3E1,2.9E1,2E1,4.8928708E-2,7E0,-6.98541E-2,1.9E1,1.9E1,1.6E1,-6.682787E-2,-1.0603333E-2,3.4E1,-2.7451754E-2,3.1627942E-2,-8.4637E-3,7.1E1,5.4E1,3.9E1,2.4485327E-2,2E1,4.4E1,-7.044759E-2,7.8E1,3.2E1,1.7E1,2.5E1,7E0,2E1,2.8218534E-3,5.6470282E-2,2.3705052E-2,4.8149876E-2,9.368883E-3,4.2814303E-2,-2.3868553E-2,2.8012905E-2,6.7500494E-2,8.141082E-3,-6.145233E-2,8.4E1,8.2E1,2E0,6.7E1,3.3543594E-4,6.087118E-2,-2.5300702E-2,3.1822044E-2,7.524372E-3,-4.3953296E-2,-5.366528E-3,2.516768E-2,3.8146283E-3,-6.2678255E-2,-6.8331055E-2,2.7474645E-3,1.8882072E-2,-4.1371815E-2,-7.496545E-2,1.5918827E-2,4.1832128E-3,5.3276617E-2,-1.9296823E-2,1.7072199E-2],"split_indices":[2,0,4,1,0,4,4,1,2,0,5,0,0,4,2,4,2,2,0,0,0,1,2,0,4,0,5,0,0,0,5,0,5,5,5,0,1,0,1,0,5,2,2,0,0,4,0,0,0,4,2,2,0,0,2,0,2,4,2,2,0,5,0,0,0,0,0,0,0,0,0,0,0,4,4,1,4,0,0,0,0,0,0,0,0,0,0,0,0,0,0,0,0,0,0,0,0],"split_type":[0,0,0,0,0,0,0,0,0,0,0,0,0,0,0,0,0,0,0,0,0,0,0,0,0,0,0,0,0,0,0,0,0,0,0,0,0,0,0,0,0,0,0,0,0,0,0,0,0,0,0,0,0,0,0,0,0,0,0,0,0,0,0,0,0,0,0,0,0,0,0,0,0,0,0,0,0,0,0,0,0,0,0,0,0,0,0,0,0,0,0,0,0,0,0,0,0],"sum_hessian":[2.874674E2,1.17562614E2,1.6990479E2,1.10721886E2,6.840728E0,1.6160427E1,1.5374435E2,9.217905E1,1.8542835E1,2.334876E0,1.3825551E1,6.8585176E0,1.4688583E2,6.694786E1,2.5231188E1,4.7084746E0,1.3834361E1,8.085548E0,5.7400026E0,2.1861339E0,4.672384E0,2.5802664E1,1.21083176E2,3.5954334E1,3.0993526E1,1.5897035E1,9.334153E0,2.6017962E0,2.1066785E0,5.632083E0,8.202278E0,2.4931087E0,5.592439E0,1.6833565E1,8.969099E0,1.09222435E2,1.1860741E1,6.648733E0,2.9305601E1,5.7827535E0,2.5210772E1,1.0490256E1,5.406778E0,6.347409E0,2.9867446E0,4.605944E0,3.596334E0,2.986307E0,2.6061325E0,7.1957273E0,9.637838E0,4.675268E0,4.293831E0,4.9522854E1,5.9699577E1,7.519407E0,4.341334E0,2.1837612E1,7.4679894E0,1.941951E1,5.791263E0,8.368259E0,2.121997E0,2.208758E0,3.1980197E0,2.5084965E0,2.0974474E0,4.104446E0,3.0912814E0,2.8541245E0,6.783714E0,2.0672596E0,2.6080086E0,3.792748E1,1.1595375E1,9.730404E0,4.9969173E1,2.0674937E0,2.2738404E0,3.80157E0,1.8036041E1,2.0426033E0,5.4253864E0,9.04897E0,1.0370539E1,2.1017163E0,3.689547E0,6.106683E0,2.2615767E0,3.3488907E1,4.4385734E0,7.899456E0,3.6959188E0,2.1431599E0,7.5872445E0,8.193059E0,4.1776115E1],"tree_param":{"num_deleted":"0","num_feature":"6","num_nodes":"97","size_leaf_vector":"1"}},{"base_weights":[3.3323E-2,-5.6841993E-1,8.593821E-2,-8.8210154E-1,4.0052173E-1,1.0698719E-1,-6.229016E-2,-2.6723465E-2,-6.307076E-2,-1.0727249E-2,4.6874736E-2,8.078219E-2,5.559181E-1,3.8105775E-2,-4.783134E-2,1.6322935E-1,-7.6934494E-2,-2.7051989E-2,9.58876E-1,1.18486375E-1,8.266336E-1,-4.6471825E-1,1.8953204E-1,5.8471937E-2,1.990276E-2,2.1505277E-1,-2.0993331E-1,-9.668088E-3,1.1528732E0,-2.5906616E-1,-6.595381E-2,3.8536024E-1,-3.2834858E-1,8.677527E-2,5.7614976E-1,1.8995462E-1,-6.4591366E-1,7.493827E-2,2.5647534E-2,-5.054535E-1,4.3353736E-1,-2.0994176E-1,6.220808E-1,-9.4932044E-1,2.0699994E-1,1.521689E-2,-3.7114464E-3,-1.6936814E-2,4.0321097E-2,2.0258302E-2,-2.7855072E-2,-6.9706194E-2,-1.4883742E-3,1.1343534E-2,-5.816112E-2,-1.658533E-2,4.716046E-2,-3.205385E-2,5.4049756E-2,4.976375E-2,1.3155299E-2,-7.30729E-2,1.6380567E-3,4.239219E-2,-3.062105E-2],"categories":[],"categories_nodes":[],"categories_segments":[],"categories_sizes":[],"default_left":[0,0,0,0,0,0,0,0,0,0,0,0,0,0,0,0,0,0,0,0,0,0,0,0,0,0,0,0,0,0,0,0,0,0,0,0,0,0,0,0,0,0,0,0,0,0,0,0,0,0,0,0,0,0,0,0,0,0,0,0,0,0,0,0,0],"id":19,"left_children":[1,3,5,7,9,11,-1,13,-1,-1,-1,15,17,-1,-1,19,21,-1,23,25,27,29,31,-1,-1,33,35,-1,37,39,-1,41,43,45,47,49,51,-1,-1,53,55,57,59,61,63,-1,-1,-1,-1,-1,-1,-1,-1,-1,-1,-1,-1,-1,-1,-1,-1,-1,-1,-1,-1],"loss_changes":[8.770099E0,7.1251364E0,7.2583656E0,5.5286417E0,2.2279096E0,2.909614E0,0E0,5.3418655E0,0E0,0E0,0E0,3.1133642E0,6.566289E0,0E0,0E0,4.559867E0,8.61736E0,0E0,7.586527E-1,4.7443438E0,3.4664917E0,5.6159678E0,5.160271E0,0E0,0E0,5.2768097E0,6.0807385E0,0E0,8.9768314E-1,5.0952697E0,0E0,5.2708035E0,4.9034014E0,3.0361557E0,6.58634E0,3.2157576E0,7.6004024E0,0E0,0E0,1.06388E1,3.4471056E0,6.8851194E0,3.2682343E0,3.4349117E0,4.943164E0,0E0,0E0,0E0,0E0,0E0,0E0,0E0,0E0,0E0,0E0,0E0,0E0,0E0,0E0,0E0,0E0,0E0,0E0,0E0,0E0],"parents":[2147483647,0,0,1,1,2,2,3,3,4,4,5,5,7,7,11,11,12,12,15,